2855 128
A0 0.389968 -0.258817 0.038289 0.255068 0.368233 0.139711 0.294376 0.061128 0.082022 0.063389 -0.018673 -0.581277 -0.300501 0.571454 -0.282741 0.085573 -0.126043 -0.228451 0.037426 0.355044 -0.197400 -0.042290 0.388277 0.102009 -0.800661 -0.017226 -0.400936 -0.093280 -0.054303 -0.463517 -0.332939 0.385927 -0.012954 0.421362 0.050198 0.255534 0.020178 0.254427 0.077836 -0.359269 -0.211546 0.123651 0.068381 0.207678 -0.076502 -0.499733 -0.080800 0.380648 -0.085568 -0.232713 -0.088066 0.316789 0.181536 0.086128 0.214086 0.174495 0.008148 -0.189028 -0.201642 0.338415 0.100134 -0.211582 0.531496 0.138790 0.190927 0.029142 -0.300535 -0.314644 0.156926 0.024591 -0.253431 -0.380553 0.259159 -0.115605 0.380292 0.001923 0.427937 -0.672341 0.398032 -0.476520 -0.259411 0.185133 0.117973 -0.024065 0.325016 0.275358 -0.165322 0.252269 -0.317857 0.017731 -0.208687 0.254122 0.066574 0.052177 -0.155584 0.330094 -0.117010 0.192546 -0.064982 0.580921 0.221009 -0.170363 0.165029 -0.051010 -0.391041 -0.174947 -0.063005 0.133065 -0.146718 0.056299 -0.239397 -0.543652 -0.041294 -0.292567 0.076824 0.053650 0.134171 0.001707 0.007893 -0.124282 -0.024420 0.320878 0.324133 0.309047 -0.042839 0.420024 -0.023150 -0.009891
A1 0.041604 -0.164384 -0.001586 0.101461 0.541920 0.186964 -0.032065 -0.111913 0.039427 -0.237031 0.193449 -0.165805 -0.570979 0.331403 0.488972 -0.031069 0.072031 -0.124817 0.286051 0.173480 -0.491411 0.017956 -0.088750 -0.238106 -0.186076 -0.001604 -0.053087 -0.488631 -0.043521 -0.139533 -0.487780 -0.136686 -0.254119 0.384340 0.219199 0.162523 0.347498 0.289334 -0.058670 -0.023748 -0.118973 0.159531 0.025239 -0.263969 -0.042683 -0.352606 -0.326735 0.574827 0.348643 -0.156102 -0.027211 -0.129836 0.071927 0.026049 -0.183288 -0.126102 0.343721 0.007369 -0.034314 0.055131 -0.124480 -0.504161 0.534002 0.170973 0.294210 0.202785 -0.218431 0.006575 0.372251 0.190806 -0.344643 0.018451 -0.099771 0.377603 0.119344 0.078295 -0.327248 -0.016147 -0.058300 -0.154802 0.166452 0.040092 0.111103 -0.067373 0.166808 0.092447 0.279099 0.296714 -0.264930 -0.308598 -0.023221 0.094043 0.133950 -0.012337 -0.460852 -0.035859 0.032036 0.456165 0.159192 0.406531 0.121865 -0.333423 0.017543 -0.257750 -0.057890 -0.021422 0.354738 -0.037697 -0.203883 0.370021 -0.074015 -0.267551 -0.365020 -0.134147 0.191234 -0.033452 -0.059904 0.009693 -0.458666 -0.094746 0.307306 0.114396 0.210070 -0.076144 -0.335344 0.037358 -0.088351 -0.184562
A2 0.385405 -0.291772 -0.275322 0.548219 -0.290203 -0.097595 -0.065521 0.325318 -0.532329 -0.171368 0.163487 -0.605640 -1.060168 0.412199 0.315208 0.373724 -0.388220 0.377308 0.705716 0.012649 -0.097255 -0.242720 -0.292359 -0.133164 -0.221660 0.041752 -0.330161 -0.206988 -0.318024 -0.382549 -0.728006 0.643542 0.126454 -0.142539 -0.016398 0.142806 0.239796 0.173570 -0.478753 -0.220759 0.001356 0.392858 0.370600 0.268385 -0.176450 0.004646 0.227717 0.515143 0.746049 0.014228 0.052525 -0.417178 0.175726 0.143431 0.718595 -0.214059 -0.233456 -0.345602 0.062394 -0.033013 -0.092826 -0.047056 -0.197892 0.075719 0.324712 -0.157230 -0.219458 0.170736 0.135484 -0.113183 0.011212 0.273987 0.450370 -0.410673 -0.110133 -0.057299 -0.359515 -0.233881 0.107235 0.325866 0.080104 -0.808406 0.195946 -0.162596 0.262432 0.212398 0.363187 0.435836 0.021021 -0.189116 -0.210478 -0.473547 0.329716 0.085232 0.052092 -0.403334 0.196975 -0.112012 0.166139 -0.695531 0.327267 -0.059341 0.719241 -0.685325 0.147953 0.161830 0.086142 0.192499 0.037161 0.470354 0.044729 -0.159626 0.298375 -0.218283 -0.167503 0.126543 -0.003788 -0.275061 -0.263838 0.552853 0.577694 -0.527315 -0.373365 0.111573 -0.054100 0.523844 -0.047789 -0.032198
A3 0.484473 -0.371258 -0.352455 0.327803 0.170286 0.321197 -0.025185 -0.298187 -0.065450 0.063887 -0.446082 -0.468916 0.004356 0.278157 -0.042501 0.070022 0.063192 -0.162074 0.177401 0.301560 0.285410 -0.343770 0.131395 -0.128536 0.013262 0.004018 -0.050494 -0.091689 -0.087303 -0.550986 -0.761608 0.216429 0.378093 0.407549 -0.255363 0.199054 0.390655 0.207756 -0.116178 0.194885 -0.163643 0.069216 0.198868 -0.068934 0.374050 -0.297291 0.218505 0.705490 0.304748 0.237947 0.177136 -0.059410 0.031529 -0.283575 0.720637 -0.147291 0.063385 -0.129248 -0.365255 -0.105427 -0.476163 -0.535146 0.207133 -0.204229 0.583204 -0.016869 -0.630121 -0.326134 0.409773 0.377076 -0.237054 0.185525 0.143434 0.147795 0.270256 -0.084366 -0.328353 0.728763 0.018518 -0.115850 0.257107 0.200668 0.270733 0.093676 0.140403 0.127928 0.462085 0.046631 -0.155346 -0.177997 0.379790 0.007873 0.105511 0.089474 -0.285201 -0.469677 0.038216 -0.024991 0.195919 0.472574 -0.110070 0.024102 0.198484 -0.156745 -0.122667 -0.274668 0.100300 -0.017481 -0.173157 0.177663 -0.159979 -0.161222 0.014943 -0.318135 0.018735 0.399515 0.123752 -0.356854 0.009073 0.265407 0.100390 0.084121 0.027939 0.065311 0.113214 -0.005175 -0.380254 -0.292102
A4 0.320130 -0.388551 -0.364817 0.121611 -0.610474 0.060591 0.411730 0.121927 0.130817 0.358527 -0.042417 -0.470074 -0.352655 0.319337 0.140529 -0.057818 0.357403 -0.032830 0.085958 -0.155636 -0.070592 -0.641488 0.125873 -0.778986 -0.077335 -0.175612 -0.158510 -0.081343 -0.151150 -0.057876 -0.781221 0.368236 0.313697 0.489805 -0.231813 -0.168210 0.327797 0.053741 -0.404377 -0.160923 0.145649 -0.399494 0.081855 -0.393403 -0.126339 -0.555292 0.243759 0.258826 0.191929 0.402582 0.203423 0.628906 -0.107041 -0.218343 0.859912 -0.095618 -0.092159 -0.043863 -0.028722 0.233171 0.223840 -0.203371 0.484137 0.055927 0.606647 0.152963 -0.439188 -0.244467 0.588869 0.299575 -0.316216 0.327135 0.496836 -0.301420 -0.039989 0.462520 -0.408420 0.017047 0.353207 -0.024963 0.132449 -0.303969 -0.008772 0.063264 0.187575 0.484957 0.194292 -0.341416 -0.392775 0.222444 -0.070501 -0.063202 -0.235313 -0.055857 -0.470221 -0.121375 0.410780 0.491089 0.254938 0.622812 -0.173863 0.528629 -0.121680 -0.401928 -0.201042 -0.013433 0.016972 0.332376 0.181542 0.116201 -0.732178 -0.075560 -0.104109 -0.258615 -0.233584 0.599705 -0.024221 -0.250683 0.271546 -0.168468 0.121655 0.129081 0.055686 -0.428603 0.250676 -0.081006 -0.555435 -0.119259
A5 0.061160 0.534746 -0.312757 0.016753 0.377110 -0.131648 -0.002920 0.515013 -0.227135 -0.360923 -0.017005 -0.127399 -0.038469 -0.334431 -0.136616 -0.298921 -0.163748 -0.155464 0.093848 0.303510 0.018447 0.274174 -0.583209 -0.421911 -0.278021 0.292167 -0.468396 0.066352 0.050127 -0.255621 -0.179593 0.058730 -0.035445 0.057046 -0.008201 0.749842 0.278277 0.185800 -0.105370 0.013040 -0.037780 0.512613 -0.218558 -0.078339 -0.504073 0.223495 -0.035543 0.339498 0.394320 0.169836 0.504372 0.511987 -0.244649 0.192877 0.621220 0.002399 0.332311 -0.233509 -0.069184 0.243921 -0.317393 0.042101 0.494624 -0.299427 0.717795 0.184770 -0.709537 0.123944 0.419057 0.303820 -0.448257 0.016581 0.357589 0.576025 0.063161 0.277541 0.410055 0.333908 0.477401 -0.629744 0.039828 -0.350521 0.418722 -0.003374 -0.562545 -0.094290 0.762933 0.884974 -0.822954 0.011880 0.210923 -0.147453 0.274549 0.182474 -0.079595 0.240076 -0.087658 -0.092952 0.017692 0.136955 -0.295562 -0.419585 -0.006365 -0.093090 -0.204130 0.083698 0.047945 0.265456 -0.397673 -0.022366 0.341956 -0.358277 0.283996 0.050458 0.151722 0.149201 0.127639 -0.530396 -0.326585 0.085628 -0.305192 0.127915 -0.018333 0.018987 0.586345 0.211537 -0.051547 -0.278566
A6 0.330801 0.030120 0.278190 0.010996 -0.454947 -0.079937 0.254408 -0.174474 -0.097656 0.677994 -0.094207 0.096995 -0.476763 0.126479 0.130854 0.391534 -0.036439 -0.239397 0.348008 0.118343 0.035429 -0.956076 -0.149154 -0.282388 0.135734 0.345311 0.591354 0.317233 -0.710971 -0.744795 -0.663634 0.546659 0.371971 0.177423 0.413594 0.264727 -0.119646 -0.014712 0.069844 -0.415982 0.109629 0.543315 -0.371725 0.705971 -0.057368 -0.180348 0.391029 0.180388 0.482217 -0.519495 -0.261290 -0.595802 0.180230 -0.281067 0.571036 0.150791 0.069417 -0.124087 0.197564 0.246385 0.129777 -0.481259 -0.205742 -0.147364 0.476808 0.217597 -0.326893 -0.205378 0.311589 -0.125951 -0.264356 0.361811 0.365661 -0.248866 -0.475599 -0.844447 -0.429368 0.303428 0.090073 0.273160 0.211200 0.351135 0.248681 0.035028 0.403301 0.517719 0.375211 0.318314 -0.783809 0.166028 0.029677 0.188316 0.590345 -0.011117 -0.136160 0.124111 0.262358 0.538888 0.213627 0.542226 0.265525 0.699822 0.459824 0.006172 0.380216 -0.493552 -0.154227 -0.509485 -0.647407 0.385624 -0.308991 -0.225349 -0.222917 0.161742 -0.489078 -0.035336 0.623093 -0.136008 -0.439007 0.097523 0.697699 -0.146593 -0.128949 0.116893 0.339878 0.418194 -0.498647 0.093721
A7 -0.033315 0.501969 -0.281666 0.085422 0.503865 0.044964 -0.325667 0.030985 -0.260589 -0.251418 -0.219803 0.048299 -0.109856 -0.395843 0.114692 -0.225142 -0.476818 0.188578 0.224535 0.376953 0.299814 0.245550 -0.489405 -0.182704 -0.509180 0.063064 -0.415212 0.089819 -0.048417 -0.367068 -0.293758 -0.049568 0.161384 -0.056849 -0.095064 0.556179 0.148817 -0.147306 0.271042 -0.316688 0.013716 0.335068 -0.002955 0.005546 -0.125620 0.362205 -0.129189 0.135614 0.533551 -0.030434 0.320667 0.528965 -0.356446 0.602317 0.647235 0.154744 0.259177 -0.262661 0.097537 0.344252 -0.589665 0.077678 0.519116 0.340360 0.290709 0.659013 -0.654791 0.110646 0.408938 0.227553 -0.363292 -0.048511 0.707001 0.475119 0.127768 0.096903 0.222258 0.342766 0.414858 -0.261345 0.162361 -0.403937 0.090378 0.028450 -0.584920 0.025692 0.679383 0.724113 -0.973276 -0.032603 0.270214 -0.005823 0.304740 -0.246824 -0.079841 -0.103713 0.379743 -0.388734 -0.276881 0.210432 -0.228555 -0.398488 -0.193710 -0.182391 -0.612462 -0.304363 0.318011 0.302890 -0.587968 -0.153927 0.120905 -0.485684 0.130224 -0.156172 -0.158752 0.021920 0.264503 -0.384344 -0.232417 -0.248662 -0.169779 0.031833 -0.127120 0.087187 0.742198 -0.035182 -0.053814 -0.008935
A8 0.198023 0.071399 0.320033 -0.102596 -0.014873 -0.053071 -0.388308 0.501249 0.204119 -0.201478 -0.116032 0.083299 0.101440 0.011281 0.141251 -0.126793 -0.216712 0.067454 0.469655 -0.326180 0.070186 0.117249 0.091479 -0.121750 -0.063560 -0.210707 -0.193472 -0.311197 -0.505748 -0.221631 -0.500515 0.295105 0.509519 0.590190 0.132849 0.336911 0.122367 0.176788 0.247955 0.025641 0.056571 0.108384 0.340921 0.222224 -0.502379 0.027668 -0.077260 -0.051868 -0.049624 0.380215 0.162910 0.480344 -0.292853 -0.073075 0.172204 0.121325 0.448282 0.064955 -0.140972 0.156382 -0.155752 -0.115350 0.462523 -0.100119 0.306547 0.356056 -0.332367 -0.058049 -0.174599 0.356738 -0.681032 0.090498 0.298054 -0.296253 0.164851 0.155392 0.174261 0.411337 0.202071 -0.057132 -0.061460 -0.520821 0.254358 0.212409 -0.431386 0.336091 0.222208 0.215774 -0.205921 0.006065 0.447452 0.122656 0.141541 -0.291312 0.241646 -0.232289 0.013613 0.222214 -0.050170 0.212361 -0.417692 -0.496430 0.237065 -0.372363 -0.377364 -0.208007 -0.000695 0.443805 -0.529024 -0.135810 -0.506838 -0.417528 0.011130 0.282049 0.203572 0.648800 -0.289016 -0.372973 -0.003518 0.054311 -0.026508 0.100788 0.305968 0.523280 0.176026 -0.201861 -0.106295 0.283932
A9 0.034622 -0.162529 -0.617276 0.274824 -0.101248 -0.104529 -0.088072 0.064913 -0.369625 -0.402908 -0.075228 0.040897 -0.429209 0.897080 0.223078 0.345752 -0.470324 0.257851 0.747456 -0.189036 -0.076621 -0.237199 0.170895 -0.451349 -0.027505 0.111081 -0.205336 0.035411 -0.593513 0.008858 -0.401088 0.270052 0.045304 0.175424 0.292450 0.231870 -0.098347 -0.006142 0.109912 -0.268424 0.126430 0.133213 0.074427 0.749228 -0.263534 -0.491128 0.285157 0.432110 0.458836 0.318838 0.459719 -0.038549 -0.021671 -0.411463 -0.228377 0.320860 -0.011634 -0.152256 0.188640 -0.160683 0.292735 -0.613944 0.052988 0.253796 1.067424 -0.406898 -0.420704 0.182781 0.262168 0.111609 -0.039591 0.151137 0.019408 0.446770 0.351127 0.379307 -0.121962 -0.198792 -0.412757 0.091149 -0.538896 -0.359828 0.162031 0.264282 0.119674 0.293058 0.002770 -0.134877 -0.372295 0.079709 -0.507910 -0.370884 0.101116 -0.293763 -0.037748 -0.145777 -0.096994 -0.111718 0.063117 0.248791 -0.287435 -0.090396 -0.088649 0.040001 -0.389675 0.039897 -0.075840 0.204007 -0.208760 -0.250259 -0.183909 -0.147135 -0.074512 -0.321805 -0.614354 0.192929 0.679653 0.266014 -0.118779 -0.272950 0.466740 -0.098781 -0.302550 0.076215 -0.082956 0.482875 -0.174269 0.245289
A10 0.154006 -0.590963 -0.493153 0.068633 -0.043923 -0.013660 0.100524 0.006204 0.195412 -0.321713 0.104620 0.117037 -0.199687 0.270813 0.178730 0.436195 -0.246392 0.300320 0.571055 0.359395 -0.084164 -0.040132 -0.287497 -0.439783 -0.015779 0.082043 -0.259782 0.627602 -0.509764 -0.269836 -0.702015 0.197745 0.113197 -0.068184 0.135822 0.483791 0.424340 0.264600 0.201694 -0.341251 0.260927 0.344868 0.443686 0.129508 -0.325733 -0.407592 -0.096510 0.274477 0.561068 0.484613 -0.221306 0.758364 -0.196077 -0.336263 0.471883 -0.135308 -0.026414 -0.169540 -0.075437 0.094202 -0.004044 -0.351826 -0.153281 0.037607 0.757666 -0.663043 -0.269641 0.185342 0.416621 -0.060798 -0.245614 0.216020 0.172694 -0.121464 0.261664 -0.003699 0.002952 0.107483 -0.382144 0.131156 -0.020536 -0.050349 0.224569 0.257726 0.316412 0.582627 -0.511050 0.148992 -0.473545 -0.138432 -0.593960 -0.341996 0.081317 -0.167247 -0.009026 -0.531866 -0.252476 0.433317 -0.025102 0.329491 -0.389033 0.213863 -0.104136 -0.220624 -0.232708 -0.159159 0.089237 -0.268109 -0.068419 -0.956443 -0.179783 -0.259233 -0.101670 -0.483234 -0.330568 -0.101179 0.673360 -0.046945 -0.117823 0.093124 0.315785 -0.169215 -0.524477 0.070743 0.241594 0.202589 -0.046447 0.270265
A11 0.278803 -0.592259 -0.083536 -0.183269 0.006760 -0.023378 0.175389 0.191599 0.019277 0.105096 -0.092391 0.082882 -0.501475 0.436766 0.142692 -0.085207 0.008040 -0.014488 0.326336 -0.327664 -0.033014 -0.442039 0.042471 -0.515961 0.437267 -0.176932 -0.278847 -0.184150 -0.047065 -0.174769 -0.477621 -0.039432 0.277487 0.543888 -0.147804 -0.062618 0.270383 0.420294 0.000041 -0.012918 -0.043412 0.081627 -0.083505 -0.288092 0.059056 -0.274601 0.031221 0.157731 -0.081251 -0.101161 -0.008522 -0.174280 -0.370010 -0.347897 0.048514 0.529727 0.340446 0.080467 0.208303 -0.089391 -0.020561 -0.380042 0.571009 0.064753 0.680306 -0.006166 -0.076825 -0.109971 0.105390 0.188131 -0.129806 0.144449 0.409419 0.161375 0.032903 0.208739 -0.136644 0.180638 0.333099 0.076084 -0.167342 -0.252027 0.357747 -0.230455 0.196924 0.672682 0.038296 -0.100352 -0.264061 0.224421 -0.104656 -0.097052 0.135183 0.019628 -0.589529 -0.192662 0.118448 0.342262 0.458823 0.444408 -0.267082 -0.028581 0.302934 -0.533580 -0.537804 -0.329334 0.179720 0.268502 0.105280 -0.001716 -0.391775 -0.086159 0.084095 -0.329744 -0.051500 -0.038207 -0.147115 -0.050283 0.129245 0.155046 0.312609 0.365878 0.087396 -0.327197 0.096346 0.340289 -0.595241 -0.086580
A12 0.426542 -0.673138 -0.035566 0.142574 0.088861 -0.321893 -0.064373 -0.174695 0.350818 0.344351 0.494873 0.226396 -0.111342 0.290923 -0.096935 0.100889 -0.028922 0.459816 0.417186 -0.056928 -0.071156 -0.172340 -0.264832 -0.542994 -0.146509 -0.141854 -0.004306 -0.012039 0.118747 0.486825 -0.026872 0.222893 0.518642 0.103770 0.100009 0.017121 0.478932 -0.005471 -0.027483 -0.449333 -0.307969 -0.104074 -0.343302 -0.091748 -0.380428 -0.529561 0.265138 0.363116 0.006250 0.044767 -0.075482 0.601584 -0.459283 -0.087292 -0.165340 0.593631 0.585768 -0.649487 0.148373 -0.078851 0.092594 -0.991823 0.347533 0.164060 0.260635 0.153329 0.168528 0.163194 -0.081164 -0.010637 -0.184793 -0.203945 -0.196291 0.131280 -0.130788 0.618605 0.203829 0.044536 0.049739 -0.377544 -0.116629 -0.085700 0.269328 0.110898 -0.453972 0.571867 0.259332 -0.653259 -0.464267 0.328184 0.120357 -0.227416 0.039987 0.000246 -0.042034 -0.159095 0.671717 0.692631 0.053577 0.208793 -0.002646 -0.059328 0.113321 -0.375419 -0.338838 0.086889 0.167668 0.671305 -0.356572 -0.130953 0.084895 -0.203394 0.057646 -0.253882 -0.008017 -0.060347 -0.105876 -0.105462 0.095447 0.443209 0.263877 0.517781 0.635094 -0.230432 0.441761 0.319451 -0.838574 -0.329208
A13 -0.106290 -0.275317 -0.514425 0.661613 -0.061730 -0.151394 -0.213186 0.041589 -0.395230 -0.140785 0.414092 -0.266358 -0.332362 0.636281 0.224501 0.050589 -0.052873 0.530934 0.484465 0.267069 0.065453 -0.225182 -0.554204 -0.884071 -0.350312 0.134523 -0.191730 -0.414071 -0.466580 0.391420 -0.817230 0.075731 0.025162 0.288951 -0.211544 0.293043 0.090755 0.124849 -0.381366 0.057861 -0.363657 0.665758 -0.189088 0.584673 -0.114900 -0.234096 0.238804 0.560468 0.578997 -0.061193 -0.251449 -0.332116 -0.021343 -0.235817 0.410279 -0.019200 0.143464 -0.087893 0.256944 0.032130 0.019357 0.047654 0.212967 0.175784 0.287498 -0.106068 -0.352340 -0.348978 -0.001660 0.097277 -0.217621 -0.212500 -0.307882 0.306948 0.151468 -0.047856 -0.022704 -0.494749 0.154217 0.183247 -0.259987 -0.401747 0.310217 -0.178287 -0.005316 0.500553 0.094172 0.207429 -0.035388 -0.168840 -0.070746 -0.308288 0.557089 0.103711 -0.163775 -0.042601 0.243456 0.096371 0.336708 -0.165835 0.348749 -0.201144 0.081640 -0.425833 -0.203193 0.026478 -0.246607 0.135553 -0.058965 -0.275646 -0.069840 -0.325412 0.195450 -0.442341 0.020044 -0.147496 0.229307 0.156194 -0.357038 0.285493 -0.156464 -0.562828 -0.218765 -0.191636 0.223564 0.627162 -0.195807 -0.544026
A14 -0.144057 -0.861996 -0.209395 0.174238 -0.133022 0.003891 0.286486 0.220197 0.359666 0.033412 -0.294618 -0.176476 0.008196 0.241159 0.112595 0.381631 0.028366 -0.117743 0.401138 -0.394795 0.127108 -0.720981 0.064539 -0.183757 0.259990 -0.052476 -0.344291 0.172684 -0.569798 -0.087204 -0.370553 0.403490 0.925047 0.606871 -0.003480 0.106835 0.296078 0.087253 -0.165114 0.062915 0.020891 0.070816 0.288981 -0.300653 0.116152 -0.274737 0.100136 0.429621 0.329728 0.213464 -0.155480 0.025316 0.022307 -0.280138 0.174456 -0.079387 0.021374 0.006303 -0.205603 0.203901 0.090652 -0.406820 0.093901 0.051314 0.188636 0.086485 -0.271361 -0.597100 0.260934 0.497789 -0.337218 -0.191454 0.075237 0.031026 -0.178108 0.247908 -0.293162 0.205786 -0.017254 0.296144 0.024962 0.523671 0.737712 -0.001834 0.203740 0.242700 0.360186 0.168604 -0.150002 0.040542 0.187251 0.151522 -0.266726 -0.183290 -0.257094 -0.234757 -0.016361 0.308352 0.283000 0.477383 -0.232296 -0.159126 0.115452 0.073638 0.292093 -0.234931 0.068622 0.183056 -0.138945 0.187033 -0.213809 -0.542134 -0.019809 -0.504421 -0.306322 0.053740 -0.127958 -0.433382 0.203871 0.129610 -0.093551 -0.013158 0.220028 -0.371094 0.555679 0.062603 -0.471990 0.204259
A15 0.260620 -0.067478 0.326873 -0.381219 0.223254 0.227564 -0.005820 0.451057 0.065246 -0.197060 -0.297304 -0.022842 -0.093484 -0.009028 0.226237 -0.175729 -0.274988 0.447134 0.696692 -0.160423 -0.139136 -0.411756 0.094566 -0.620026 -0.156477 -0.118580 -0.155943 0.093956 -0.166041 -0.046334 -0.165248 0.323462 0.652781 0.423703 0.042688 0.070799 0.791683 0.032694 0.160885 0.162869 -0.263547 0.183349 0.573968 -0.070945 -0.340433 -0.024246 -0.237757 0.006124 -0.310780 -0.016768 -0.042659 0.372918 0.028268 0.232272 0.571229 0.207627 0.230385 0.201420 -0.367862 0.536616 0.004140 -0.114529 0.321182 0.038360 0.221378 0.497694 -0.269324 0.009139 0.152619 0.328265 -0.508608 0.021215 0.348786 -0.199276 -0.052247 0.656476 0.083502 0.236389 -0.263469 -0.077522 0.214316 -0.698475 0.328562 0.258716 -0.240027 0.363308 -0.367942 0.077584 -0.117264 0.235638 0.200668 -0.077097 0.480135 -0.067494 0.225596 0.231567 0.374705 0.199115 -0.157316 0.404186 -0.086824 -0.565278 -0.160112 -0.163089 -0.184456 0.238357 0.154019 0.373748 -0.667107 -0.284235 -0.040422 -0.684933 -0.122797 0.315962 -0.193449 0.342010 -0.062626 -0.356976 0.131797 0.125341 -0.118461 -0.403916 -0.156659 -0.128699 0.021468 -0.064169 -0.077375 0.059467
A16 0.077933 -0.075951 0.184964 -0.194026 0.077725 0.242861 -0.122318 0.411166 0.130253 -0.080018 0.027108 -0.327559 0.186088 -0.151157 0.509833 -0.279050 -0.219189 0.272924 0.535734 -0.203659 0.079519 -0.037857 0.048053 -0.481984 -0.305203 0.013123 -0.082739 -0.036496 -0.285840 -0.239283 -0.439527 0.434807 0.792724 0.400492 -0.251685 0.231878 0.066307 0.156091 -0.005580 -0.220464 -0.087800 0.170273 -0.107030 0.115554 -0.086635 -0.122277 -0.010910 0.215998 -0.145108 0.084419 0.140761 0.259674 -0.186504 -0.487161 0.053151 0.525000 0.190600 0.096203 -0.150698 0.121976 0.002932 -0.162576 0.719784 -0.093314 0.336116 0.122480 -0.202098 0.405432 -0.312110 0.667773 -0.333663 0.163759 0.209599 -0.219661 -0.028317 -0.052730 0.153661 0.347258 -0.096200 -0.293359 0.109655 -0.516342 0.394135 0.281676 -0.103852 0.024566 -0.041351 0.195176 -0.127383 -0.035075 0.136141 0.237049 0.550615 -0.459255 0.191764 0.313442 0.186386 -0.016127 -0.307835 0.086077 -0.014074 -0.459820 0.123154 -0.278503 -0.564076 -0.043049 0.355147 0.400602 -0.477090 -0.412611 -0.227940 -0.335689 0.048683 0.105681 -0.034689 0.164577 -0.290894 -0.226815 -0.152527 0.206954 0.063711 0.008361 -0.078050 0.403952 0.047669 -0.058819 0.064633 0.135398
A17 0.786931 -0.337903 -0.247755 -0.126954 0.061946 -0.137099 -0.352371 0.240275 0.589579 0.354668 0.288678 -0.112292 0.233311 0.063579 0.316920 -0.096210 -0.160032 0.336182 0.697918 -0.207659 0.134507 -0.047457 -0.434878 -0.769135 -0.489645 -0.325715 -0.139931 0.021475 -0.032853 0.143733 -0.956666 0.700156 0.062512 0.579389 -0.132088 0.123694 0.321870 -0.121144 -0.359749 0.300637 0.049610 -0.482506 0.251129 -0.257559 -0.231619 0.099684 0.099997 0.114464 0.148101 0.834685 -0.055233 1.225595 -0.282014 -0.440997 0.184107 0.371755 -0.061827 -0.678297 -0.159844 -0.674017 0.287541 -0.431084 0.244982 0.346168 0.378904 0.436999 0.203274 -0.021894 0.558742 0.518522 0.198356 0.297753 0.119111 -0.437816 0.209957 0.727939 -0.104868 0.267308 0.195383 0.234648 -0.034580 -0.119015 0.072949 0.259711 -0.684934 0.567147 0.109697 -0.216578 -0.427172 0.106165 0.325298 -0.283405 -0.095238 0.216310 0.219024 -0.429296 -0.117676 0.291171 0.033976 -0.124244 0.075197 -0.033735 -0.385037 -0.230798 0.386945 -0.107004 -0.383579 -0.041333 -0.419499 -0.135329 -0.292923 -0.862693 -0.056400 -0.242745 0.327968 -0.088659 -0.409677 -0.339357 0.399876 0.005158 -0.041568 0.401362 0.185164 -0.505624 0.360122 -0.406438 -0.524374 -0.118605
A18 -0.076445 -0.492825 -0.223022 0.537349 0.250365 -0.470258 0.230368 -0.088923 -0.066324 0.373844 0.085980 -0.391718 -0.279508 -0.144332 0.280040 -0.023521 0.279825 0.313413 0.077522 -0.359180 0.172182 -0.355977 0.347140 -0.641181 -0.274938 -0.360449 -0.213428 -0.275436 0.328892 -0.017922 -0.467320 0.293426 0.020321 0.568386 -0.160914 0.124819 0.175894 0.014943 0.015877 -0.074908 0.121384 0.027289 0.174274 -0.446764 0.190922 -0.524150 -0.201306 -0.133982 0.027272 0.144744 0.139910 0.035166 -0.320708 -0.169814 0.081559 -0.110475 0.650082 -0.506757 0.091034 -0.213877 0.031201 -0.698522 0.575335 -0.116374 0.718261 0.305266 -0.079443 -0.347266 0.124028 -0.264875 -0.623223 0.098705 0.129538 0.462837 0.030524 0.463823 0.136939 0.167462 -0.217422 -0.243412 -0.147998 -0.035894 0.396558 -0.357542 -0.270372 0.267449 0.249956 -0.471580 -0.488374 0.042692 0.106877 -0.028860 0.190254 -0.435580 -0.318760 -0.180042 0.444544 0.308105 -0.066713 0.109768 0.281663 0.449679 0.146918 -0.280350 -0.438680 -0.263116 0.234424 0.675395 -0.618155 0.258262 -0.207758 -0.511200 0.214531 -0.288162 -0.285479 0.009838 0.630485 0.042986 -0.149638 0.065233 0.144254 -0.036909 0.068414 -0.412585 0.187994 0.755178 -0.161596 -0.369850
A19 0.196468 0.102835 0.067672 -0.466618 0.041624 0.230573 0.202232 0.329162 -0.187752 -0.118663 -0.018338 0.097031 -0.139421 0.144853 0.296974 -0.362582 -0.235531 -0.065325 0.507464 -0.371816 -0.138195 0.097285 -0.003502 -0.114817 0.116065 -0.001732 0.373581 0.132185 -0.304124 -0.084783 -0.256190 0.580725 0.503401 0.262523 0.416346 0.443539 0.512891 0.229191 0.435904 -0.277249 -0.159334 -0.097020 0.288246 -0.076998 -0.288327 0.019190 -0.150472 0.687185 0.010720 0.266673 0.064833 0.507875 -0.182019 -0.234921 0.293853 0.167250 -0.013786 -0.274038 -0.225191 0.367446 0.279721 0.120638 0.441881 -0.064556 0.386034 0.218465 -0.181150 -0.021836 -0.154883 0.195579 -0.292799 -0.005023 0.148569 0.166498 0.068979 0.274441 0.478800 0.648998 -0.395861 -0.376893 -0.157470 -0.474705 0.141938 0.263846 0.056657 0.424296 0.227908 0.130464 -0.431308 -0.190726 0.686849 -0.212681 0.511560 -0.229662 -0.180597 0.219198 0.275130 0.059451 0.021561 0.351449 -0.115424 -0.505727 0.072773 -0.238219 -0.382995 0.123326 0.155148 0.672963 -0.284594 0.016901 0.027615 -0.491220 -0.022560 0.658706 0.123344 0.345770 -0.153436 -0.350616 0.033463 -0.044074 -0.126833 0.081711 0.211209 0.279863 0.228930 -0.112180 0.035138 -0.349807
A20 0.288618 -0.351441 0.299768 0.064992 -0.660610 0.031698 -0.029393 0.035702 -0.304151 0.558329 0.239823 -0.098425 -0.798375 0.121933 0.041668 0.648763 0.177173 -0.247763 0.548063 0.345092 -0.129068 -0.936467 0.092307 -0.251910 -0.061648 0.801405 -0.051296 -0.155510 -0.569615 -0.597197 -0.784120 0.501413 0.104876 0.448470 0.603091 0.227602 -0.076769 0.116882 0.271084 -0.196627 -0.025231 0.382614 -0.099846 0.676101 -0.098323 -0.089142 -0.020946 0.136743 -0.192779 0.131275 -0.031634 -0.516238 0.067711 -0.637660 0.759994 -0.224491 0.683426 -0.175608 -0.090521 0.558396 0.189861 -0.562992 -0.225127 -0.140806 0.486064 0.222861 0.015727 -0.162970 0.184624 -0.065467 0.313733 -0.189321 0.262028 -0.067032 -0.181205 -0.635407 0.211716 -0.061830 0.292454 0.412036 0.214415 0.545748 -0.086798 -0.160380 0.514452 0.508461 0.791758 0.354129 -0.683252 0.187388 -0.138854 0.090518 0.509171 0.091496 -0.297275 0.472162 0.240806 0.968533 -0.336634 0.346331 -0.014971 0.460982 0.366618 -0.262802 -0.042258 -0.119441 -0.279820 -0.144437 -0.779379 0.024245 -0.225182 -0.460611 -0.034350 -0.166668 -0.857961 -0.352135 0.583296 -0.264955 0.087011 0.120145 0.647576 0.123185 -0.261667 0.015126 0.393392 -0.019958 -0.510764 0.024894
A21 0.326246 -0.127615 -0.654422 0.349643 -0.236761 -0.126781 -0.073034 -0.132068 -0.005058 0.014759 0.019261 -0.062229 -0.353522 0.262609 0.178370 0.533241 -0.458213 0.191019 0.604456 0.237591 0.045719 0.278259 0.056267 -0.691928 -0.125056 0.137483 -0.102627 0.205636 -0.782045 0.114159 -0.577501 0.395398 0.276510 0.022117 0.175562 0.638358 0.776007 -0.154582 -0.025110 -0.433993 0.191261 0.104593 0.545275 0.154121 -0.453151 -0.394832 -0.326506 0.484038 0.512716 0.843896 0.128763 0.439504 0.190701 -0.546208 0.307600 0.316284 -0.342253 0.127621 -0.063453 -0.029147 -0.000519 -0.379581 -0.026662 0.171604 0.633535 -0.113651 -0.555999 -0.085286 0.485366 0.136496 0.093266 0.307390 -0.157399 0.184234 0.136172 0.338448 -0.232527 -0.122802 -0.236618 0.067142 -0.086581 -0.208378 -0.006388 -0.078395 -0.094599 -0.100848 -0.213664 0.236640 -0.869798 -0.304083 -0.390307 -0.042772 0.206305 -0.188950 -0.107335 -0.646235 -0.184857 0.049772 -0.123803 0.492557 0.032918 0.077273 -0.236701 -0.090086 0.283921 0.082437 -0.180396 -0.365077 -0.522158 -0.156962 -0.158259 0.000678 0.341566 -0.365684 -0.002996 0.176654 0.311243 0.165247 0.080270 -0.228984 0.372512 -0.091714 -0.684198 0.035421 0.142368 0.228358 -0.494682 -0.145238
A22 0.508761 -0.583120 -0.119155 0.442512 -0.256883 -0.072180 0.126922 0.284175 0.201495 0.386676 -0.094753 -0.299514 -0.170755 0.209837 -0.108337 -0.079986 -0.103852 -0.062909 0.266332 -0.495474 -0.374717 -0.696349 -0.001293 -0.401483 0.019576 -0.113094 -0.366392 -0.003902 -0.222844 -0.169439 -0.781485 0.326193 0.767178 0.340595 0.115519 -0.393996 0.557243 0.007708 -0.168604 -0.427320 -0.142844 0.062457 0.019343 -0.283999 0.103163 -0.133234 -0.318160 0.709721 -0.233153 0.597890 -0.004549 0.124734 -0.181271 -0.604883 0.613910 0.267254 0.211353 -0.130120 -0.244938 0.030158 -0.121872 -0.111999 0.741284 0.229728 -0.030485 -0.023052 -0.532195 0.011037 0.854392 0.099546 -0.463315 0.409000 0.505411 -0.407582 0.244274 0.057723 -0.008998 0.086750 0.300882 -0.087603 0.217840 0.213576 0.345066 -0.315296 0.052865 0.287021 0.385877 -0.114553 -0.296041 0.257715 0.053808 0.145227 -0.118150 0.018388 -0.578937 -0.499654 -0.068105 0.416707 -0.038009 0.205424 0.142553 0.184995 0.123241 -0.407430 0.136507 -0.148436 -0.289845 0.129245 0.263353 -0.040732 -0.308672 -0.327185 0.244770 -0.195665 -0.180762 0.243648 -0.342161 -0.154260 0.576003 0.118507 0.189947 -0.384025 0.094123 -0.009311 0.155374 -0.061863 -0.601788 -0.135451
A23 0.163212 -0.537372 0.117022 0.000982 -0.103867 -0.062188 0.064148 -0.001894 0.511054 0.125810 0.322936 -0.079225 -0.061712 0.341024 0.091429 0.293435 -0.121938 0.457090 0.074079 -0.108662 -0.244356 -0.127403 -0.371803 -0.309463 -0.020506 -0.349993 -0.264788 -0.042520 -0.148446 -0.140772 -0.448806 0.350194 0.439977 0.151128 0.353847 0.368593 0.137420 0.244806 0.050326 0.345909 -0.220079 0.077117 0.030112 -0.171345 -0.300149 -0.170655 0.096949 0.482878 -0.213991 -0.190731 0.110099 -0.128881 -0.215761 0.022737 -0.077823 0.055787 0.464893 -0.266570 0.295955 0.123472 -0.005968 -0.521162 0.287174 0.135937 0.372847 -0.093301 -0.391995 0.118577 0.465663 -0.221184 0.105587 -0.008590 0.188814 -0.313268 0.255557 -0.052150 -0.572724 -0.115307 0.293605 -0.032090 -0.343422 -0.017160 0.122699 -0.431101 0.025420 0.242695 0.168154 0.079917 0.026528 -0.212120 -0.069318 0.196808 -0.092989 -0.122183 -0.789052 0.088362 -0.095425 0.331157 0.276875 0.649965 0.055226 -0.400673 -0.047629 -0.398134 -0.077133 -0.408071 0.311590 0.614447 -0.360792 -0.245793 -0.192333 -0.130078 0.080471 -0.310878 0.111107 0.101950 -0.042431 -0.146523 0.114899 0.123617 0.325152 0.336574 0.210851 -0.069265 -0.077043 0.628389 -0.370763 0.112176
A24 0.146712 -0.238359 -0.550987 0.262428 0.038295 0.076079 -0.180864 0.069345 0.266058 -0.032180 0.066327 -0.400587 -0.348554 0.399319 0.015388 -0.334877 0.235857 0.036510 0.512156 0.003523 0.028041 -0.039850 -0.078317 0.081868 -0.454633 -0.007089 -0.002463 -0.227786 -0.133220 0.164847 -0.254774 0.499157 -0.045756 0.304605 0.039370 0.633786 0.276555 0.474835 0.031963 -0.011414 0.009350 0.405823 0.190836 -0.146297 -0.062674 -0.237103 0.323402 0.012217 0.225751 -0.165992 -0.033050 0.005348 0.024882 -0.040341 0.116095 -0.086769 0.060195 0.052455 -0.192509 0.087043 0.336038 -0.477775 0.707523 -0.225876 0.652779 0.017100 -0.221001 -0.345968 0.402936 -0.002672 -0.254867 -0.063982 0.497523 0.143770 0.346335 0.337321 -0.359390 -0.365129 0.198504 0.072782 -0.217664 0.085104 0.144371 -0.142309 -0.272694 0.243360 0.102870 -0.054817 -0.095568 -0.065598 0.114722 -0.217231 0.161650 -0.177161 -0.131502 0.186121 0.333016 0.311680 0.157174 0.584337 0.188132 0.261437 -0.262732 -0.378006 -0.490640 0.117163 0.127080 -0.075088 -0.537375 0.499207 0.108268 -0.149928 -0.153584 -0.394932 0.248008 -0.082735 0.002590 -0.184079 0.093949 -0.107815 -0.175378 0.039967 0.067714 -0.502505 0.115083 0.616293 -0.104940 0.072702
A25 0.113786 -0.029181 -0.860446 0.209440 -0.058248 0.043965 -0.139673 -0.217591 -0.227808 -0.182401 0.387269 0.075543 -0.301726 0.490865 -0.000751 -0.086418 -0.232981 0.542755 0.688038 -0.001698 -0.212674 0.104547 -0.077168 -0.488245 -0.159093 0.300940 -0.735000 -0.024114 -0.163971 -0.022918 -0.387090 0.611815 -0.221223 0.017281 0.117596 0.138788 0.297811 -0.067048 -0.101693 0.111174 0.045816 0.568647 -0.092299 0.490064 0.037815 -0.280918 0.025546 0.350566 0.487114 -0.115398 0.205321 -0.091106 0.135340 0.503633 0.749092 -0.444572 -0.080013 -0.245600 0.021644 0.052664 0.285031 -0.819013 -0.465916 -0.585370 -0.009275 -0.174544 -0.376913 0.199188 0.039977 0.529902 -0.272318 0.192728 0.096725 0.177887 0.397886 -0.040066 0.045077 -0.254703 -0.121378 -0.169876 -0.267759 -0.435640 0.273303 -0.676926 0.383551 0.113797 0.183509 0.178655 -0.247162 -0.376449 -0.343693 -0.085740 0.556378 0.055567 0.040017 -0.262941 0.445090 -0.193480 0.241463 0.295178 0.577006 -0.154740 0.004392 -0.077488 0.030268 0.354675 -0.686902 0.332584 -0.438136 0.022671 -0.007307 -0.601648 0.143080 -0.094217 -0.385645 -0.365474 0.202903 -0.498479 -0.080622 0.205594 -0.087119 -0.172374 -0.001872 0.055672 -0.361083 0.745911 -0.132001 -0.399934
A26 -0.059673 -0.025834 -0.727141 0.090519 -0.221135 -0.399183 0.109314 0.317259 -0.250220 -0.066160 0.056464 -0.519224 -0.510939 0.296784 0.167710 0.026143 -0.137199 0.555866 0.639700 0.264417 0.106472 -0.315503 -0.353418 -0.850742 -0.157815 0.081192 -0.250081 0.072366 -0.153706 0.040522 -0.433575 0.182596 -0.126482 0.216304 -0.057067 0.368887 0.288110 0.041319 -0.260062 0.083438 0.145605 0.831862 -0.114558 0.495415 -0.307176 0.051110 -0.054047 0.277056 0.222126 -0.313778 -0.012843 -0.323931 0.357372 -0.061529 0.369184 -0.095055 -0.068266 -0.212608 0.130327 0.021989 0.025582 -0.254461 0.441848 -0.005053 0.095847 0.126571 0.078624 -0.426720 0.023954 -0.138994 0.070412 0.065976 -0.374611 0.645296 0.038972 0.217844 0.205733 -0.075834 0.005464 -0.159211 0.047003 -0.869913 0.486603 -0.122639 0.028348 0.821308 0.145019 0.055060 -0.518756 -0.420189 -0.239699 -0.029263 0.625440 0.182598 -0.016260 -0.341154 -0.061472 0.022149 0.317686 0.213712 0.816202 0.005808 -0.164458 0.121339 0.247147 0.180511 -0.098611 -0.010974 -0.102750 0.279081 0.049117 -0.606578 0.008694 -0.543712 -0.188866 -0.083061 0.257757 0.060411 -0.471434 0.213287 0.211041 -0.221713 0.005591 -0.230106 0.093161 0.794144 -0.208360 -0.322041
A27 -0.219703 -0.476116 -0.602058 -0.010542 0.143511 0.400932 0.008197 -0.381404 -0.256122 -0.321088 0.202716 -0.230785 -0.193039 0.263892 0.299172 0.268406 0.259675 0.194438 0.666619 -0.702468 0.375427 -0.124579 0.245109 -0.386523 -0.121794 0.101113 -0.343974 0.302012 -0.626138 -0.204301 -0.467267 -0.032710 0.230385 0.073246 0.072359 0.080118 -0.019775 0.055637 -0.001131 0.058396 0.080450 0.348595 0.190728 0.286606 -0.243867 -0.703662 0.029835 0.562543 0.830157 0.168411 0.384143 0.394342 -0.059044 -0.332157 0.031183 0.372538 -0.399406 0.189149 0.180078 0.025425 0.050892 -0.720399 0.027728 -0.106932 1.053214 0.063948 -0.425422 0.031769 0.637158 -0.027854 -0.467462 0.328735 0.120830 0.331954 0.035827 0.242605 -0.310284 -0.036148 -0.671202 0.029019 0.065729 0.070166 0.032573 0.313860 0.238332 0.075694 -0.254852 0.402596 -0.106778 -0.013809 -0.016956 0.250269 0.148819 -0.049937 -0.157191 -0.065215 -0.239994 -0.100514 -0.333244 0.478719 -0.093256 0.335565 0.169949 0.210079 0.028076 -0.490870 -0.043733 -0.350380 -0.365985 -0.387495 -0.386123 0.060104 0.331552 -0.684542 -0.607327 0.142031 0.624397 0.102109 0.052775 0.118949 0.418391 -0.100033 -0.481951 -0.099620 -0.230905 -0.092568 -0.453569 0.045701
A28 -0.353547 0.460620 -0.484982 -0.485095 -0.435038 0.003470 -0.058393 1.856910 -0.880473 -0.610822 0.553068 -0.305237 -0.313865 -0.086415 -0.347619 -0.623736 -0.405188 -0.051758 0.232275 0.056542 -0.122130 -0.277042 -0.031782 -0.111191 -0.105254 0.384678 -0.100756 -0.165173 0.425423 -0.397758 -0.582690 0.592787 -0.256813 0.230909 0.149038 0.278360 0.125758 0.103041 -1.075436 -0.055327 0.518676 0.874616 0.061908 0.497264 -0.161656 0.601456 0.810042 0.262295 -0.701958 -1.015257 -0.614136 0.155454 -0.062726 0.192618 1.211087 0.499403 0.187849 -0.952851 0.555304 0.660036 -0.173012 -0.081994 -0.170945 0.159434 -0.356652 -0.142503 -0.272290 -0.676861 0.630837 -0.432773 -0.626969 0.480423 -0.088304 0.075747 -0.204705 0.067492 -0.269895 0.377452 0.260254 -0.078468 -0.111226 0.411349 -0.022317 0.095565 -0.493120 0.457071 0.763278 0.947669 -0.364541 -0.136198 -0.052549 -0.166185 0.682287 0.047992 0.343822 -0.090662 0.403044 -0.453713 -0.332551 0.328079 0.169919 -0.472309 0.753019 -0.530659 -0.880228 -0.360906 0.117831 0.250730 -0.570115 -0.118407 -0.359967 -0.598582 0.350744 -0.512740 -0.434262 -0.726806 -0.006873 -1.100675 0.204757 0.060138 -0.283281 -0.242746 -0.230641 -0.259789 0.592057 -0.029701 -0.210001 -0.325890
A29 0.499058 0.167495 0.249372 0.113204 0.321340 0.222916 -0.207838 0.338582 -0.025079 -0.261711 0.013423 -0.295304 -0.067470 -0.360646 0.275428 -0.094784 -0.233446 0.159492 0.314109 0.004885 -0.158682 0.001724 -0.334650 -0.287783 -0.084818 0.045999 -0.469800 0.229434 -0.189283 0.376467 -0.211896 0.125506 0.310903 0.428048 -0.217040 0.520569 0.460437 0.228990 -0.074768 -0.161100 0.007967 0.156660 0.159211 0.277127 -0.070757 -0.061399 -0.018746 0.287509 0.018736 -0.064173 0.163869 0.438188 -0.025899 0.115238 0.441273 0.083006 0.343511 -0.368390 0.006971 0.336240 -0.463230 -0.146920 0.373812 -0.093874 0.705032 0.133508 -0.326974 0.248501 0.110142 0.455042 -0.581565 -0.204664 0.440320 0.227376 -0.037352 -0.010962 -0.033846 0.284879 0.063905 0.079896 0.117935 -0.634126 -0.021474 -0.121011 -0.286847 0.368394 0.460178 -0.106821 -0.437647 0.135136 -0.055898 0.524001 0.193345 -0.079476 0.009432 0.103312 -0.179345 -0.022765 -0.058040 -0.053266 -0.332545 -0.494091 -0.129829 -0.171135 -0.269449 -0.030514 -0.070121 0.395456 -0.795579 -0.087146 0.109081 -0.494724 -0.039084 0.200822 0.074512 0.201604 -0.156940 -0.276575 -0.425544 -0.353231 -0.053536 -0.165213 -0.286910 0.126532 0.416258 -0.137261 0.047324 0.091974
A30 0.336244 -0.284532 -0.348738 0.165293 -0.278274 0.375845 -0.158994 -0.356659 -0.543840 -0.386900 0.026763 -0.252162 -0.450326 0.356763 0.667718 0.374292 -0.533041 0.421768 1.071613 0.004315 0.052683 0.502634 -0.085898 -0.507750 -0.126700 0.013392 -0.236823 0.298406 -0.513013 0.066371 -0.678412 0.410941 -0.092335 -0.046678 0.243995 0.463975 0.064519 0.168054 0.075949 -0.517182 0.212808 -0.113655 0.150849 0.690344 -0.458377 -0.482021 -0.330347 0.428594 0.719924 -0.248054 0.582681 0.165490 -0.464732 0.273670 0.370731 0.643310 -0.186684 0.030418 -0.434525 0.021729 0.040476 -0.754702 -0.063789 -0.039199 0.654653 -0.320103 -0.228479 0.315990 0.538243 0.196707 0.189429 -0.086532 -0.042128 -0.064239 0.224773 0.181666 -0.027369 0.114526 -0.310409 0.128133 -0.249515 -0.029869 -0.267012 0.552925 0.009012 0.325361 0.105492 0.100393 -0.625504 -0.054673 -0.104065 0.246861 0.030324 0.110496 0.560765 -0.010099 -0.001104 -0.215725 -0.134027 -0.201605 -0.504996 -0.024577 -0.006496 0.123927 0.043921 -0.008340 -0.375903 0.383534 -0.291955 -0.165142 0.169087 0.108076 -0.007992 -0.376150 -0.455757 -0.303231 0.563382 0.245157 0.054209 -0.217500 0.186083 -0.058193 -0.399690 0.062099 -0.042679 -0.072540 -0.222630 0.414799
A31 -0.009805 -0.019401 -0.523421 0.723431 -0.396750 -0.201420 -0.306479 -0.104692 -0.947614 0.750735 0.573336 -0.088570 -1.374150 -0.114996 0.390147 0.342593 -0.331324 0.458852 0.733751 0.222688 -0.045982 0.019416 -0.300008 -0.137137 -0.273061 0.025238 0.174343 -0.082402 -0.828063 -0.034122 -0.033029 0.958917 0.022895 0.530892 -0.224840 0.368101 0.434987 -0.143199 0.341324 -0.378971 -0.031338 -0.121942 -0.202558 1.015048 -0.415093 -0.158492 -0.054252 -0.046433 0.829429 -0.166925 0.217988 0.324192 -0.913484 -0.040291 0.095415 0.983641 -0.490422 -0.523381 -0.203935 -0.051634 -0.257137 -0.670061 -0.194035 -0.379890 0.423416 -0.019473 0.426102 0.662850 0.257157 -0.099200 0.623348 -0.275397 -0.075104 -0.343658 -0.365979 0.388071 0.100220 0.026403 -0.190017 0.584461 -0.726048 -0.138597 0.314910 -0.002895 -0.406823 0.709024 0.448372 -0.418128 -0.419636 0.344246 -0.360325 -0.389518 0.373767 -0.303491 -0.282284 -0.675620 0.303661 0.064304 0.268008 0.029873 0.169283 0.355296 0.469346 -0.093393 0.356543 0.579413 -0.166354 0.565187 0.169021 -0.476713 -0.507758 -0.358689 0.017100 -0.657117 -0.625801 -0.233393 0.525927 0.055396 -0.490359 -0.142104 0.208291 -0.520984 0.123513 -0.007549 -0.006875 0.362438 -0.377694 0.020618
A32 -0.159122 0.151308 -0.774067 -0.168147 -0.437754 -0.373682 0.482480 0.158036 -0.517489 0.343820 0.167425 -0.367797 -0.436232 0.009666 0.381273 0.558706 0.307109 0.638155 0.607947 0.375332 -0.272647 -0.053074 -0.014833 -0.295098 0.066880 0.378635 -0.672845 0.281391 -0.514538 -0.101549 -0.869438 0.213555 0.397317 0.247568 0.057425 0.209252 0.328408 0.148461 -0.458715 0.229479 0.049101 0.520034 -0.148878 0.316576 0.227279 -0.162165 0.079219 0.609539 0.927047 -0.103178 0.000841 -0.098338 -0.052623 0.007223 0.409539 0.504759 -0.253940 -0.107182 -0.406878 0.174879 0.303530 -0.743306 0.226183 -0.523744 0.323182 0.087544 -0.214322 0.038148 0.504058 0.351740 0.044912 0.137545 0.174261 0.100634 0.093478 0.377657 -0.159847 -0.452256 0.105529 0.278679 -0.135235 0.264222 0.263131 0.170549 0.134881 0.293934 -0.358895 0.381888 0.221065 -0.362313 -0.374211 -0.404607 0.208118 -0.808873 -0.069270 -0.284998 -0.225730 0.089401 0.153117 0.687664 0.016079 0.491454 0.079052 0.201233 0.406897 -0.263155 -0.245349 -0.307984 -0.346747 0.082768 -0.258202 -0.506861 -0.066027 -0.218361 -0.510539 -0.260383 0.334773 0.070258 -0.527805 0.202612 0.656097 -0.469313 0.046737 0.530003 -0.012926 -0.034779 -0.139271 -0.480681
A33 0.229116 -0.374050 -0.535677 1.113076 -0.153174 0.065973 -0.297254 0.292699 -0.257312 -0.253710 0.487099 -0.108489 -0.128285 0.041419 -0.017200 0.161500 -0.097789 0.632100 0.754834 -0.070127 0.170489 -0.086681 -0.521364 -0.282931 -0.629572 0.069933 0.020765 -0.379474 -0.229390 -0.105965 -0.739852 0.474884 0.632934 0.023951 -0.210183 -0.339496 0.295466 -0.044487 -0.364329 -0.736498 0.009212 -0.012038 -0.106613 -0.109150 0.097257 0.149582 0.176029 0.520923 0.571723 -0.266808 0.586073 0.225043 -0.648845 0.055833 1.059392 0.330889 -0.328733 -0.013964 0.863011 0.097769 -0.037458 0.042617 -0.065395 -0.079625 0.251612 0.699532 -0.067900 -0.009116 0.421563 0.202261 -0.127391 -0.103739 -0.186841 0.147462 -0.265296 0.574496 -0.080709 -0.470275 0.162546 0.270981 -0.710182 -0.271031 -0.053034 0.275221 -0.282744 0.779698 0.198999 0.433261 -0.704753 0.400037 0.194366 -0.497912 0.073050 0.015032 0.144413 -0.751538 0.258133 0.277175 0.255776 -0.439253 0.215979 0.303394 0.194149 0.074364 -0.080609 -0.115643 -0.602067 0.074205 0.017849 -0.219987 -0.026360 -0.721936 0.137692 -0.265434 -0.584020 -0.349878 0.366688 -0.293117 -0.307276 -0.108140 0.181073 0.173213 0.211250 0.168047 0.419776 0.442724 -0.494495 -0.345711
A34 0.668062 0.271309 0.093703 -0.224921 -1.183839 0.263157 -0.130843 -0.083716 -0.441627 0.326129 0.492755 0.464637 -0.559850 0.660244 0.599482 0.194609 0.126211 -0.074783 0.825767 0.635510 0.125494 -0.138867 -0.307668 -0.340423 -0.215626 1.084793 0.172646 0.451818 -0.165574 -0.008325 -0.741469 0.879878 -0.235712 0.585096 0.455459 0.434528 0.156461 -0.349670 0.147243 -0.284395 -0.010347 0.095376 -0.038703 0.439800 -0.704077 0.197398 -0.078695 -0.163546 -0.368662 -0.200173 -0.311166 -0.295332 -0.376028 -0.307317 0.644429 0.539484 0.040511 -0.680284 -0.239778 0.760279 -0.076264 -0.423337 -0.092866 0.073016 0.530578 -0.250025 0.065009 -0.551904 0.281757 -0.251238 0.723408 -0.220508 -0.008094 -0.071428 -0.378785 -0.283730 0.008796 0.298892 0.048129 0.040377 0.223660 0.726333 -0.211447 -0.025704 0.088009 0.690676 0.848253 0.279647 -0.453744 0.176907 -0.586931 0.475399 0.524232 0.540934 -0.003475 0.174624 -0.097842 0.993645 -0.266865 0.308162 -0.290675 0.164547 0.435635 -0.491183 -0.221573 0.602288 -0.423752 0.364969 -0.659037 0.038769 0.019785 -0.012817 -0.354590 -0.418598 -0.722524 -0.891427 0.341844 -0.526406 0.267184 -0.057584 0.803183 -0.215087 -0.074535 0.242174 0.534634 0.289301 0.045265 0.158521
A35 0.159736 0.222406 0.177511 -0.049049 0.086736 0.064213 -0.160809 0.412204 -0.089869 -0.446137 -0.072593 -0.223555 0.195395 -0.291740 0.026106 -0.047794 -0.435204 0.321852 0.540033 -0.525157 0.105267 0.002970 -0.027377 -0.036673 -0.540427 -0.277138 -0.036789 -0.412434 -0.077234 -0.178285 -0.496006 -0.077110 0.555118 0.288300 0.045404 0.277605 0.268476 0.404858 -0.267871 -0.269106 -0.247024 0.111252 -0.097847 -0.057746 -0.164419 -0.139669 -0.076191 0.204511 -0.233134 -0.504473 -0.237922 0.219890 -0.206292 -0.089391 0.509050 -0.251389 0.179494 -0.239812 -0.115807 0.357155 -0.018659 -0.131606 0.839337 0.164843 0.422734 0.411528 -0.342580 0.102258 0.424380 0.423801 -0.119994 0.072850 0.070175 0.137142 -0.012309 0.308393 0.289480 0.259758 0.515873 -0.451907 0.243978 -0.601365 0.394049 0.045384 -0.492440 -0.051259 0.041237 0.272584 -0.547692 -0.266179 0.508467 0.039833 0.135428 -0.101813 -0.022897 0.389967 0.048628 -0.089045 -0.200413 0.160272 -0.158254 -0.238319 -0.411731 -0.360420 0.051807 0.258472 -0.012064 -0.127105 -0.229231 -0.076010 -0.295169 -0.276602 -0.236577 -0.045916 0.136119 0.492091 0.041360 -0.307376 -0.411993 -0.245784 0.135388 -0.502980 -0.051577 -0.073507 0.388527 0.279546 0.257614 -0.022560
A36 0.539165 -0.791628 0.219876 -0.258339 0.454943 0.184517 0.048886 0.137250 0.043599 -0.089230 -0.264946 0.105743 -0.187792 0.526418 0.120322 -0.026274 0.083001 0.179149 0.254380 -0.118029 0.122024 -0.238861 0.040745 -0.110345 -0.220048 -0.084497 -0.286651 -0.058199 -0.502217 -0.425536 -0.034164 0.633780 0.351608 0.562684 0.195366 0.155408 -0.138501 0.218890 0.342333 -0.290770 0.152324 0.152417 0.212319 0.205741 -0.367900 -0.104037 0.046251 0.347462 0.231314 -0.103651 0.060006 -0.344368 -0.013300 -0.180837 0.371118 0.048540 0.345850 -0.109214 -0.209136 -0.104286 -0.273178 -0.615889 0.457168 0.026735 0.343459 0.217541 0.076787 -0.032167 0.244666 0.027525 -0.339276 -0.087188 0.160664 -0.448942 0.406634 0.164577 -0.459440 -0.002748 0.514866 0.187921 -0.082472 -0.064903 0.029498 -0.167583 -0.215590 0.731351 0.214868 0.099730 0.016091 -0.260874 0.026452 0.211578 -0.164346 -0.436148 -0.256255 0.204274 0.372691 0.257478 0.325354 0.323395 0.531872 -0.117211 0.376833 -0.119652 0.112669 -0.323534 0.329492 0.456257 -0.134046 0.209947 -0.176839 -0.122026 0.168703 -0.289800 -0.065434 0.115715 -0.262700 0.227402 -0.075099 0.073649 0.217676 0.013613 -0.163283 -0.052762 -0.014311 0.267138 -0.253477 0.094600
A37 0.444517 -0.340719 -0.027235 0.483248 -0.430373 -0.053958 -0.223862 -0.076826 0.161765 -0.269131 -0.055156 0.121485 -0.334503 0.352985 0.425478 -0.193806 -0.098536 -0.104231 0.383978 -0.190576 0.023396 -0.407654 0.437001 -0.367699 -0.134996 -0.028956 -0.145220 -0.325154 0.158268 -0.119156 -0.719128 0.342873 0.412903 0.473770 -0.225985 -0.439491 0.726875 0.329439 0.286549 -0.455402 0.050798 -0.193110 0.000976 0.090953 0.137253 -0.497171 0.061630 0.121165 0.200570 0.026300 0.107098 0.133785 -0.324871 -0.373796 0.243501 0.338670 -0.143555 -0.263575 0.277479 0.161089 -0.234172 -0.370507 0.590387 0.112601 -0.030689 0.138370 0.363850 0.135076 0.340419 0.271480 -0.056482 0.099514 0.260421 -0.276055 0.182680 0.469181 -0.125578 0.279037 0.240223 -0.176601 0.150827 -0.132151 0.129900 0.141528 -0.408899 0.522582 0.372286 -0.000945 -0.121584 -0.244668 0.074355 -0.135258 -0.064581 0.366580 0.076951 0.013295 0.335681 0.667587 0.032207 -0.082498 -0.326194 0.163935 0.349217 -0.143513 0.252046 -0.381099 0.027569 0.441020 -0.259775 -0.050527 -0.373487 -0.386785 -0.032267 -0.198506 0.114133 -0.129601 -0.035239 -0.262619 0.338170 0.293354 0.664279 0.218960 0.224363 -0.038373 -0.043992 0.218780 -0.560438 -0.102551
A38 0.015837 -0.078964 -0.034658 -0.124963 -0.346422 -0.022592 0.082724 0.024242 -0.106872 -0.057552 -0.098513 -0.197624 -0.108539 0.486464 0.434184 -0.141851 -0.355016 -0.126091 0.185997 -0.416088 -0.177932 0.099290 -0.474010 0.035213 -0.387006 -0.707743 -0.325632 -0.172350 -0.195286 -0.082224 -0.427853 0.288321 -0.275712 0.069605 -0.121963 0.214528 0.088190 0.144627 0.128758 -0.010472 -0.102313 0.305184 0.157168 -0.064573 -0.269052 -0.235148 0.163977 0.217373 0.451055 -0.118167 0.218618 0.089011 -0.229346 -0.230842 0.037688 -0.206938 0.341282 -0.177011 -0.198923 0.212465 0.028616 -0.462366 0.329383 0.083850 0.850803 -0.091224 -0.406457 -0.412044 -0.099039 -0.004578 -0.007926 -0.279667 0.581784 -0.100872 0.483840 0.275633 0.010832 0.177668 0.001920 0.122519 -0.125936 -0.039426 -0.237865 -0.239277 0.032673 0.057097 0.295012 0.572162 -0.066402 0.146612 -0.222005 -0.044774 -0.033903 -0.096182 -0.628634 -0.148860 0.179794 -0.181415 0.048182 0.295515 0.387953 -0.377747 -0.066770 -0.479643 0.012495 -0.317028 0.270365 0.066948 -0.363545 0.359359 0.001941 0.174078 0.328177 0.015022 0.020001 -0.314479 -0.229443 -0.147666 -0.019924 0.001263 -0.140828 0.402807 0.112347 0.223179 0.233532 0.513293 -0.302013 -0.390933
A39 -0.316744 -0.085065 -0.301354 0.062707 -0.086432 -0.168518 0.165070 -0.312339 0.095322 0.153244 0.335473 -0.171628 -0.249868 0.303431 0.290313 -0.065645 -0.031242 -0.290092 0.815930 0.344243 -0.009985 0.289600 -0.241546 -0.128667 -0.413722 -0.253621 -0.412459 -0.235531 0.102518 -0.204540 -0.301056 0.193232 -0.626650 0.235174 0.050003 0.091771 -0.091759 0.164274 0.371053 -0.078990 -0.070186 0.601775 -0.209743 -0.109051 0.122047 0.044379 -0.141617 0.630198 0.433722 -0.049171 0.045774 0.132889 -0.112020 -0.314556 0.255583 -0.724441 0.519284 -0.304323 -0.033441 0.361978 -0.308223 -0.646111 0.523262 -0.084578 0.065864 -0.022922 -0.295243 -0.421315 0.673060 0.119996 -0.159020 -0.029227 0.341040 0.628823 0.440495 0.398632 -0.151545 0.269323 0.235655 -0.207475 0.310448 -0.535068 0.144835 -0.470057 0.133527 0.285509 0.249547 0.315127 -0.313965 0.014303 -0.416766 -0.420989 0.096161 -0.135932 -0.038793 0.173107 0.203770 -0.345834 -0.028943 0.226861 -0.046679 -0.058699 0.363577 -0.138072 -0.356511 0.120728 -0.152465 0.054917 -0.615048 0.247461 0.223546 -0.191760 -0.313618 -0.121558 0.002057 -0.172482 0.090461 0.001149 -0.062677 0.075417 0.450995 -0.125100 -0.065185 -0.335786 -0.133452 0.537088 -0.198415 -0.333116
A40 0.348340 -0.462954 0.049130 0.664682 0.188870 0.111322 0.099247 0.303011 -0.385662 -0.119811 0.052100 -0.293305 0.088337 0.290031 0.061345 -0.027439 0.068834 0.216507 0.639926 0.266852 0.205340 0.169118 0.259373 -0.079167 -0.299453 -0.009475 -0.391691 -0.124094 -0.165432 -0.005615 -0.212670 0.696138 -0.182425 0.164237 0.187852 0.189281 0.388845 -0.028347 -0.174912 -0.071474 -0.194471 0.008366 -0.023051 -0.235193 -0.534820 -0.185950 -0.188432 -0.186563 0.209989 -0.126095 0.412421 0.106871 0.086293 0.004933 0.278820 -0.113251 0.045314 -0.578880 -0.260917 0.189028 -0.265377 -0.328259 0.610383 0.105428 0.073700 0.139119 -0.199994 0.230365 0.237244 -0.144123 0.083924 -0.419157 0.060847 0.058233 0.536368 -0.100109 0.019461 0.241500 0.040380 -0.420955 -0.182426 -0.159307 0.324381 0.109974 -0.242380 -0.075404 0.221673 0.190058 -0.695441 0.007865 0.479388 0.149560 -0.119662 -0.084352 -0.193880 0.038338 0.309791 0.294472 -0.047823 0.005891 0.204598 -0.046128 0.150576 -0.028020 0.042864 0.019154 -0.076901 0.059218 -0.192915 -0.084238 0.088838 -0.152977 0.038462 0.043015 -0.227282 -0.154582 -0.031928 -0.379992 -0.096507 -0.377894 0.444452 0.128985 0.361872 -0.175976 0.478285 0.192755 -0.246985 -0.110364
A41 0.096505 -0.071513 -0.293789 0.166595 -0.252881 0.105135 -0.140915 0.108210 -0.119954 0.004078 0.432897 -0.140306 -0.439946 0.109736 0.462710 -0.102816 -0.114646 0.141934 0.501600 0.031052 0.595451 -0.219881 -0.170892 -0.092223 -0.465923 -0.053149 -0.448796 0.039868 0.171772 0.215272 -0.469380 0.533696 -0.291114 -0.003245 0.265928 0.164318 0.150443 0.412285 0.158670 -0.080609 -0.192638 -0.335875 -0.297246 0.457954 0.218717 -0.363740 0.056129 -0.152302 0.381657 0.055643 0.340003 0.046678 -0.322912 0.120909 0.124070 0.190626 0.142315 -0.109418 0.069198 0.147865 -0.485321 -0.896376 0.224343 -0.066376 0.195282 -0.308426 -0.232319 0.038291 0.213401 0.398014 -0.179980 -0.059103 0.539390 0.121482 0.597568 0.298364 -0.170249 0.317704 -0.121519 -0.570117 0.185130 0.001735 0.279512 -0.513892 -0.358206 0.168817 0.020997 0.471294 -0.407408 0.104020 -0.188146 0.347086 -0.073386 0.401875 0.130468 0.383956 0.001140 0.282428 0.262167 -0.130408 0.047359 0.062523 0.181419 -0.369079 -0.224850 -0.274226 -0.127375 0.398230 -0.210056 -0.291236 0.245456 -0.416748 -0.200018 0.123458 0.305021 -0.397055 -0.079812 -0.221165 -0.357939 -0.341692 0.196905 0.150125 0.203652 0.124767 0.047424 0.078595 -0.308204 0.267612
A42 0.494643 -0.425425 0.093899 0.030104 0.152901 -0.289998 -0.337746 -0.316466 0.673441 0.615652 -0.318937 -0.240128 -0.289132 0.144223 -0.024091 -0.306764 -0.194427 0.311026 0.322095 -0.152577 -0.145477 0.225908 -0.394097 -0.686455 -0.341025 0.006103 0.369040 0.330489 0.184901 0.403871 -0.355055 0.322705 -0.107895 0.478526 -0.350933 0.605167 0.328442 -0.012159 -0.076154 0.108200 -0.049807 -0.365808 -0.197972 -0.197615 -0.788071 -0.090498 0.325157 0.130209 0.210916 0.138702 -0.131712 0.557752 -0.848486 -0.423868 -0.158237 0.582509 0.239861 -0.718458 -0.060537 -0.083244 0.120855 -0.590281 0.416493 0.221086 0.268185 0.172708 0.074431 0.362015 0.560360 0.009977 -0.232834 -0.373900 -0.073907 0.178086 0.205450 0.623958 -0.208369 -0.113190 -0.266808 0.007528 -0.089429 -0.249000 0.257677 0.012133 -0.613541 0.875865 0.125168 -0.204742 -0.547463 0.221824 0.151048 0.092462 0.100351 -0.538659 -0.226540 -0.182210 0.384971 0.506100 -0.039620 -0.159904 0.172685 -0.147143 -0.295138 -0.438853 -0.156258 0.026961 0.070744 0.352715 -0.054085 -0.095891 0.118621 -0.156697 0.448905 0.058124 0.260596 -0.097230 -0.586846 -0.279743 0.062707 -0.065119 -0.315178 0.131250 0.312692 -0.346180 1.052167 0.331196 -0.337436 -0.535254
A43 0.276105 -0.079413 -0.560156 0.128790 -0.563948 0.296317 0.087423 0.518311 -0.335209 -0.039638 0.122375 -0.679102 -0.568952 0.400545 0.335792 -0.291432 -0.107433 0.418437 0.935418 0.383080 -0.030202 -0.248213 0.141586 -0.302330 -0.219019 0.613690 0.125116 -0.365382 0.056001 -0.499580 -0.433240 0.559075 -0.471868 -0.055123 0.748819 -0.190735 0.121155 -0.412841 -0.124440 -0.089951 0.334178 0.972047 -0.336026 -0.082241 -0.471510 0.254919 0.454161 -0.038812 -0.088822 -0.628558 -0.175924 -0.360556 -0.462360 -0.171760 0.540781 0.060683 -0.052367 -0.414351 0.325430 0.384063 -0.199380 -0.200640 -0.506895 0.208376 0.308683 -0.280399 0.166467 -0.845229 0.378992 -0.756732 -0.360765 -0.169863 -0.079649 0.053782 -0.443469 0.002996 -0.235302 -0.091158 0.025155 -0.108154 0.053520 0.311287 0.050870 -0.748113 -0.169223 0.863435 0.219879 0.503420 -0.236830 -0.035750 -0.205355 0.144124 0.393399 0.348135 0.656399 -0.398213 0.531745 0.346935 -0.245866 -0.247410 0.069752 -0.030888 0.293553 -0.346131 -0.639812 0.174363 -0.008815 0.195084 -0.453642 -0.037636 0.011682 -0.234223 0.018327 -0.028040 -0.186691 -1.074386 -0.132519 -1.041753 0.010801 -0.216641 0.482956 0.216599 0.238183 -0.188868 0.676774 0.755959 -0.151627 -0.429983
A44 0.494557 -0.432225 -0.326932 0.185321 0.187031 -0.307625 -0.221626 -0.064467 0.222285 0.199855 -0.134353 -0.404910 0.173161 0.426081 -0.261648 -0.260255 -0.000629 0.716747 0.511955 0.006807 0.069224 0.230314 -0.479478 -0.523729 -0.420607 -0.413580 0.276082 0.381900 0.136104 -0.200815 -0.443810 0.153459 0.092848 0.389633 -0.011909 0.320956 0.210885 0.072318 -0.445076 -0.324491 0.199768 -0.471472 -0.380259 -0.051569 -0.169016 -0.069664 0.434747 -0.055595 0.431013 0.149517 0.144078 0.634435 -0.629137 -0.220966 -0.176078 0.273317 0.460870 -1.019844 0.360420 -0.096986 0.211559 -0.510848 0.501714 0.143909 0.592066 0.133134 -0.423356 0.345619 0.370455 -0.279188 -0.184288 -0.301943 0.204050 0.213782 0.173478 0.801358 0.213169 0.401569 -0.222032 -0.126158 0.276707 0.036113 0.065605 0.015273 -0.624379 1.256603 -0.046416 -0.376874 -0.784128 0.105341 0.067496 0.170883 0.422897 -0.564115 0.009872 0.001462 0.175672 0.059717 -0.181846 -0.382600 0.645852 -0.453492 -0.133925 -0.421032 -0.113150 0.065319 0.179418 0.522203 -0.191013 -0.218544 0.055940 -0.358020 0.230485 0.299471 0.168008 0.089951 0.048435 0.467567 -0.214363 0.007146 -0.190066 -0.157441 0.331857 -0.021399 0.493449 0.375862 -0.619762 -0.038282
A45 0.236222 0.480831 0.275254 -0.225368 0.530077 0.120459 -0.088599 0.297154 -0.142139 -0.007901 -0.125587 0.168175 -0.156162 0.003478 0.173265 -0.464318 -0.459164 -0.060199 0.329172 -0.288135 0.080991 0.243860 -0.257362 -0.429884 -0.444497 -0.373754 -0.220868 -0.220082 -0.198900 0.058550 -0.234262 0.137368 -0.023859 0.238562 -0.022474 0.796490 -0.157596 0.293579 -0.065026 -0.394683 -0.003872 0.258080 0.051947 0.554502 -0.341010 0.149162 -0.081690 0.140327 0.147643 -0.548268 0.029307 0.151685 -0.025295 0.105415 0.062702 0.084135 0.196304 -0.259072 -0.306357 0.044892 -0.263563 -0.301603 0.433512 0.164296 0.389483 0.257309 -0.171602 -0.199202 0.321070 -0.046968 -0.506714 -0.215059 0.385773 0.052336 -0.118324 0.395705 0.202284 0.135077 0.166577 -0.327820 0.032999 -0.311131 0.417433 0.063654 -0.271971 0.157636 0.226528 0.202762 -0.334937 -0.229844 0.279847 -0.254466 -0.029035 -0.079932 -0.037507 -0.066291 0.272697 -0.092323 -0.472019 -0.162415 -0.604728 -0.372194 -0.251520 -0.351829 -0.356874 0.129346 -0.297342 0.422581 -0.371232 -0.101670 0.004943 -0.825839 -0.249309 -0.051438 0.173396 0.583685 -0.452149 -0.374069 -0.410002 -0.012526 -0.199587 -0.181430 -0.084050 0.027074 0.445804 0.112570 0.062762 -0.192229
A46 0.148833 -0.240955 0.010439 -0.009921 -0.326960 0.363131 -0.128463 0.280981 -0.014114 -0.448177 -0.188759 0.385767 -0.086478 0.573403 0.703707 0.053461 -0.080050 -0.058721 0.500831 0.111990 0.069543 0.549495 -0.004753 -0.243955 -0.215113 -0.036255 0.146556 0.075295 -0.158545 -0.048810 -0.833881 0.648410 -0.131580 0.223308 0.390810 0.072370 0.483225 0.496858 -0.329805 0.034374 -0.193966 -0.021574 -0.001121 -0.448208 -0.184137 -0.396162 -0.295678 -0.090762 -0.024626 -0.324480 0.186190 0.224829 -0.018176 -0.161836 0.024122 0.494205 -0.023914 -0.304990 -0.109822 0.343654 0.074990 -0.563992 0.494973 -0.008385 -0.142629 -0.221259 0.184953 0.056541 -0.108060 0.507239 -0.446723 -0.253945 0.084846 -0.208481 0.403745 0.313846 0.130596 -0.032422 0.273281 -0.307969 0.297342 0.175909 0.237275 0.072539 -0.182027 0.435421 0.216374 0.031635 -0.295548 -0.054317 0.078261 0.351222 0.149172 0.100857 -0.012022 -0.047037 -0.042874 0.244356 -0.370213 0.069114 0.240637 -0.593232 0.222207 0.061422 -0.167640 -0.022824 0.229033 0.536058 0.012762 0.011799 0.009886 -0.055454 -0.124001 0.394431 0.135001 -0.451279 0.025025 0.015977 -0.050970 -0.115074 0.337389 0.209218 0.551338 0.170168 0.050025 -0.166007 -0.295495 0.144628
A47 -0.340089 0.136947 0.401625 -0.097812 0.272901 0.484105 0.113943 0.681735 0.072185 -0.211510 -0.009418 -0.114215 -0.008781 -0.068463 0.112815 -0.217898 0.078601 0.211602 0.595383 -0.313751 0.019814 0.177238 0.048338 -0.280316 -0.144944 -0.423518 -0.301301 -0.238102 -0.343668 -0.115728 -0.176276 0.150418 0.636695 0.211585 0.114422 0.264440 0.462984 0.320100 0.077505 -0.044513 -0.101737 -0.186575 -0.105727 -0.117810 -0.377298 -0.078867 -0.127881 0.091056 0.052602 -0.026102 -0.205407 0.508125 -0.444310 -0.315497 0.140214 0.148030 0.405178 -0.472832 0.042513 -0.053699 0.411534 -0.040549 0.331151 -0.162365 0.573106 0.164813 -0.537379 0.297904 0.115852 0.251644 -0.445292 0.296046 0.545384 -0.174162 0.103941 0.464262 0.163620 0.155144 -0.333666 0.000930 -0.230016 -0.382458 0.001164 0.144234 -0.291338 0.452416 0.145059 0.002068 -0.427223 -0.290307 0.630504 0.043410 0.333609 -0.006607 0.135040 0.378296 0.236849 -0.264879 -0.458452 0.043592 -0.162130 -0.598199 0.268538 -0.246761 -0.242391 -0.138272 0.183599 0.299407 -0.627729 -0.327288 -0.467766 -0.362724 -0.455373 0.099346 -0.124125 0.399272 -0.225180 -0.443920 -0.163720 0.171557 -0.001808 -0.055038 0.331065 0.026498 0.068028 0.065002 -0.245430 0.321046
A48 -0.275909 0.414183 -0.047854 0.071245 0.255009 -0.310408 -0.019374 0.072110 -0.305184 -0.529500 -0.100041 -0.450895 -0.471650 -0.166397 -0.016966 -0.407040 -0.322844 0.360144 0.295358 0.147880 0.659777 0.498919 -0.298539 -0.623544 -0.339484 0.133806 -0.022722 -0.006401 -0.084087 -0.286878 -0.060938 -0.257003 -0.110423 -0.014003 -0.047151 0.119592 0.401612 0.035321 -0.346640 -0.405341 0.467683 0.257831 0.195884 0.235859 0.292026 0.331726 -0.264671 0.178700 0.381793 0.313346 0.087536 0.324234 -0.147316 0.297571 0.554133 -0.131715 0.249645 -0.264018 0.151817 0.333911 -0.289702 -0.125053 0.594748 -0.298922 0.383313 0.640683 -0.737367 0.055584 0.809402 0.301980 -0.448336 -0.056680 0.669998 0.404037 0.378831 0.187725 0.412228 0.413247 0.523153 -0.368376 0.121218 -0.417499 0.374973 0.266274 -0.762695 0.141872 0.220385 0.811404 -0.774332 -0.199328 0.383867 -0.215205 0.248306 -0.233758 0.359690 0.292801 0.079186 -0.228481 -0.017211 0.420756 -0.253383 -0.325834 0.372488 -0.205721 -0.576730 0.233713 0.515454 0.371877 -0.669900 -0.158903 0.031592 -0.012274 0.417647 0.203883 0.152309 0.029730 0.143343 -0.575729 -0.246992 0.065029 0.150941 -0.290494 -0.115508 0.050626 0.434837 0.234865 0.129014 0.073561
A49 0.003243 0.385488 0.053495 -0.139684 0.391075 0.028122 -0.003940 0.202855 0.012369 -0.031763 -0.410036 0.311042 -0.104919 -0.289536 0.145239 0.472237 0.000078 -0.457547 0.317989 -0.452912 -0.347416 -0.110730 -0.223797 -0.570485 -0.425398 -0.269060 0.136715 0.374131 -0.264060 0.132754 -0.145399 -0.059458 0.205835 0.557903 -0.102993 0.169121 0.157792 -0.060724 -0.058538 -0.398683 0.104689 -0.235181 -0.245510 -0.088091 -0.142661 -0.390977 0.093721 0.236315 -0.031647 -0.291462 0.292115 0.134143 -0.143102 0.211723 -0.612098 0.176432 0.065172 -0.469495 -0.133244 -0.022629 0.431204 -0.291964 0.048987 0.004123 -0.107209 0.120790 -0.314509 -0.083953 -0.147760 0.646698 -0.753821 -0.050207 0.455626 0.061214 -0.411854 0.167993 -0.716949 0.078586 -0.101358 0.005721 -0.202091 -0.311428 0.556142 0.070030 0.088933 0.079787 0.279175 0.406863 -0.591938 0.149826 -0.285923 0.508365 -0.279814 -0.135015 -0.314245 0.023269 -0.366740 0.036205 0.005132 0.722250 0.015056 0.125446 0.630084 -0.056815 0.309421 -0.247141 0.113625 0.789951 0.514401 0.493819 -0.414291 0.119395 0.128464 -0.617362 -0.392185 -0.147539 0.050287 -0.633214 -0.100559 0.136880 0.351715 0.085684 0.290470 -0.330049 0.117751 0.040568 -0.087173 -0.394993
A50 0.217727 -0.008299 0.189038 0.183076 0.162065 -0.041000 0.268385 0.910153 0.219013 -0.000263 0.270320 -0.320488 -0.060904 -0.214072 0.336681 0.157126 -0.437712 0.317829 0.603733 -0.166528 0.066601 0.220875 0.066922 -0.407654 -0.167674 -0.237900 -0.048047 -0.211916 -0.044321 -0.017562 -0.206212 0.299936 0.603959 0.322101 -0.055589 0.008112 0.436693 0.003990 0.004837 0.006564 -0.089598 0.118631 0.559010 0.128421 -0.479937 0.006682 -0.049458 0.120721 -0.051630 0.000058 0.429799 0.562809 -0.319699 -0.470799 0.049262 0.279545 0.029221 -0.162765 -0.343533 0.329532 -0.035193 -0.293596 0.462644 -0.238431 0.194225 0.141094 0.044575 -0.075079 -0.201610 -0.117272 -0.526768 0.254082 0.551268 -0.166664 0.210932 0.309740 0.199435 0.363182 -0.230730 -0.387752 0.025049 -0.485348 0.473373 0.392368 0.075694 0.150378 0.145653 0.243556 -0.457161 -0.203207 0.147687 0.156238 0.190121 -0.054618 0.533121 0.334811 0.076444 0.160504 -0.079814 0.158842 -0.300191 -0.747325 0.138923 -0.223994 -0.279966 0.098795 -0.159640 0.457155 -0.487749 -0.147436 0.022070 -0.333665 -0.141792 0.280198 0.168039 0.697844 -0.271366 -0.460327 -0.226060 0.163509 0.225978 0.010941 0.136671 0.131329 -0.054290 -0.171678 0.024978 0.218565
A51 0.331901 0.135919 0.024289 -0.033647 0.227068 -0.077519 -0.331966 0.597439 0.215891 -0.484533 -0.274012 0.130554 -0.220144 -0.161028 0.015884 -0.254129 -0.223154 0.062727 0.607624 -0.456505 -0.062687 0.035947 -0.209837 -0.300660 -0.312952 -0.188538 -0.066681 0.100198 -0.141969 -0.240683 -0.248413 0.224229 0.202316 0.426640 -0.315810 0.623401 0.376126 0.355776 0.110398 -0.463206 0.188221 -0.116172 0.238426 -0.022667 0.250458 0.241272 -0.418953 -0.062244 0.309154 -0.007058 0.227137 0.193649 -0.214220 -0.119234 0.373156 -0.136950 0.052004 -0.434581 0.037472 0.114116 -0.168258 0.190163 0.045237 0.239167 0.448978 0.099960 -0.430663 0.410145 -0.054415 0.196257 -0.393532 0.246617 0.636754 -0.013713 -0.143316 0.281016 0.506970 0.360505 -0.068816 -0.499913 0.054516 -0.093105 0.091191 0.357965 -0.498307 0.077663 0.322024 0.309982 -0.493098 -0.203130 0.362377 0.073401 0.011667 -0.054056 0.179020 0.169091 -0.023116 -0.088385 -0.128477 0.021931 -0.463309 -0.513621 0.256155 0.242290 -0.326153 -0.239416 -0.023141 0.361978 -0.582263 -0.093296 -0.060822 -0.559827 -0.121733 0.059872 0.008229 0.152711 -0.074114 -0.486985 -0.388862 -0.358569 0.038058 -0.036166 -0.208036 0.286658 0.160797 0.252834 -0.368384 -0.101286
A52 -0.346919 0.039667 -0.238786 0.111801 0.133839 -0.188899 -0.255423 0.585387 -0.643802 -0.625836 -0.221542 -0.141328 -0.195150 -0.208706 -0.237684 -0.290669 -0.426592 0.467605 0.093185 -0.201858 0.304632 0.264637 -0.518661 -0.536713 -0.265535 0.266209 -0.108393 0.150553 -0.611459 -0.021317 -0.439709 0.182020 -0.113000 -0.037943 -0.113634 0.476329 0.393339 0.225162 -0.505713 -0.318592 0.027798 0.850776 -0.318907 0.181201 0.098599 0.654052 -0.103667 0.312748 0.050194 -0.115272 0.564562 0.479081 -0.392694 0.432084 0.641398 0.039134 -0.223998 -0.739955 0.255856 0.006541 -0.250995 -0.560401 0.223689 0.158334 0.344554 0.419834 -0.226394 0.273704 0.152713 0.191945 -0.332577 -0.050408 0.855358 0.137316 -0.043194 0.574738 0.360695 0.267748 -0.066745 -0.337581 -0.131785 -0.174672 0.162150 -0.199904 0.016464 -0.066924 0.467161 0.559675 -0.465219 -0.023185 -0.098456 -0.225535 0.385682 -0.041117 0.017584 0.059498 -0.123105 -0.292217 -0.193502 -0.059313 -0.299008 -0.700574 0.285577 -0.181473 -0.340213 0.147620 0.223568 0.490192 -0.421145 -0.587982 -0.085928 -0.253882 0.058914 -0.300848 -0.358460 0.020411 0.164453 -0.287417 -0.360908 -0.044153 -0.272674 -0.554440 -0.188190 0.130280 0.390205 -0.120954 -0.152378 0.174311
A53 0.409232 -0.282699 -0.177554 -0.017427 -0.223047 0.405336 -0.201268 0.375695 -0.124972 0.210473 0.149288 -0.113501 0.059368 0.357317 0.093009 -0.177368 0.196273 0.041186 0.334011 -0.226174 0.371781 0.038688 -0.128807 -0.612188 -0.229921 -0.217689 0.032839 -0.243483 0.038321 0.012897 -0.413323 0.829862 -0.114893 0.108564 0.147974 0.209823 0.003196 0.393363 -0.329054 -0.154962 0.259445 0.166760 0.012964 -0.069033 -0.327136 -0.366565 0.021231 0.255156 0.266420 -0.133646 0.247782 -0.131302 -0.272807 0.028001 0.008362 0.291666 0.406734 -0.517331 -0.345463 -0.122912 -0.310693 -0.083968 0.751844 -0.112712 0.480366 -0.049495 0.057309 -0.324664 0.494205 -0.043276 0.193573 -0.046592 -0.190298 0.118790 0.081999 0.312801 -0.143165 0.239331 0.119037 -0.141462 -0.105659 -0.090393 -0.254504 -0.161201 -0.547041 0.494823 0.142434 0.498091 -0.327193 0.048029 0.239616 -0.136371 -0.235781 0.035256 -0.227253 0.567414 -0.060729 -0.026711 0.171545 0.145751 0.182048 -0.156252 -0.078747 -0.204642 0.052112 0.136289 0.001661 -0.020939 -0.505778 -0.009872 0.318145 -0.424967 0.139659 0.039719 0.412149 -0.013722 -0.024681 0.182733 -0.437612 -0.326652 0.700209 -0.125456 0.535258 0.059890 0.172149 0.336568 -0.309726 -0.527695
A54 0.378272 0.023860 0.168434 -0.216355 -0.467682 0.022008 0.014537 -0.000815 0.126477 0.134576 0.223427 -0.041539 -0.873047 0.298049 -0.357213 0.463983 -0.061639 -0.135605 0.626975 0.418820 -0.199512 -0.635186 0.019533 0.117975 0.202106 0.626650 0.100809 -0.174522 -0.303358 -0.405836 -0.884505 0.659880 0.352425 0.489237 0.525258 0.118899 0.338872 0.153367 -0.235890 -0.079142 0.278016 0.220599 -0.069161 0.496279 -0.705582 -0.173168 0.226676 -0.078840 -0.195674 0.225976 -0.266292 -0.850093 0.265487 -0.365501 0.504489 0.325995 0.352386 0.044715 0.175287 0.382275 0.188734 -0.591797 -0.067317 -0.040092 0.380734 0.151134 0.108226 -0.377511 0.565804 -0.073082 0.339695 0.038800 0.431112 0.002840 -0.203909 -0.141405 0.175843 -0.193544 0.120982 0.509434 0.326432 0.517743 -0.391367 -0.294262 0.256486 0.773350 0.846842 0.047400 -0.620665 0.171406 -0.453837 -0.054337 0.361435 0.100953 -0.279595 0.288479 -0.147410 0.388893 -0.214833 0.623395 0.012547 0.507989 0.206872 -0.110331 -0.059185 -0.210814 -0.378208 -0.060557 -0.632868 0.127151 -0.346219 -0.350650 -0.448104 -0.398319 -0.775754 -0.417873 0.567893 -0.390441 -0.145770 -0.285283 0.855360 0.103574 -0.219236 0.077151 0.209323 0.272899 -0.477287 -0.097177
A55 0.187609 0.156591 -0.096297 -0.134084 0.026190 0.095154 0.299059 0.174223 -0.025335 -0.278359 0.034350 -0.295997 -0.105010 -0.298166 0.131069 -0.348872 -0.436164 0.089089 0.139261 -0.212757 0.122488 0.191094 -0.075726 -0.451460 -0.397114 -0.005337 0.028115 -0.108758 0.037485 0.228657 -0.315942 0.417304 0.304403 0.317670 -0.178154 0.613751 0.377368 0.318679 -0.067773 -0.163957 -0.207070 -0.062859 -0.058669 -0.067617 -0.098108 0.159811 -0.120626 0.041888 0.217013 0.088357 0.377571 0.154138 0.143687 -0.202335 0.185090 0.234723 0.597658 -0.173126 -0.115899 0.176311 -0.135382 -0.309130 0.006497 0.250195 0.489167 0.425258 -0.715470 0.445762 0.094636 0.436686 -0.235636 0.056482 0.610425 -0.115581 0.214209 0.376079 0.468872 0.430406 -0.167694 -0.080895 -0.166327 -0.482495 0.044694 -0.208335 -0.293749 0.301754 0.084578 0.205021 -0.550947 -0.076421 0.066423 0.168899 0.167972 0.282028 0.114884 -0.310917 0.096344 -0.280754 -0.226741 0.093449 -0.160268 -0.408730 -0.222525 -0.116845 -0.535975 -0.307055 0.121630 0.229394 -0.796438 -0.446833 0.068057 -0.333954 -0.105233 0.154438 -0.317448 0.175125 -0.241279 -0.515830 0.107885 -0.477394 -0.071390 -0.111717 -0.032464 -0.000034 0.214457 0.395267 0.054401 -0.192205
A56 0.159977 -0.509617 -0.127184 0.296925 0.227621 0.111227 0.186834 0.038120 -0.282482 0.015171 0.215423 0.119325 -0.112863 0.052465 0.177849 -0.132678 0.187406 -0.169517 0.751690 0.569030 0.324899 -0.023292 -0.037038 -0.138161 -0.248797 -0.077342 -0.683271 -0.078111 0.018985 -0.100063 -0.492620 0.039176 -0.252573 -0.131045 0.219493 0.024162 0.054400 0.064067 -0.588807 -0.090866 0.126520 -0.045042 -0.333110 -0.386809 -0.284106 0.263955 0.088264 -0.133166 0.542023 -0.165318 0.287652 0.174448 -0.213793 0.337306 0.087070 -0.263672 -0.031415 -0.433444 0.086782 -0.257005 -0.171281 -0.237076 0.955810 0.101158 0.625374 0.108258 -0.307840 -0.105854 0.440088 -0.114000 -0.132424 -0.289126 0.406910 0.567925 0.296626 0.432316 0.126558 0.339651 0.297835 -0.373267 0.223358 -0.427715 0.343762 0.147181 -0.102837 0.350233 0.595654 0.525950 -0.725776 -0.120325 -0.037099 0.135998 0.100573 -0.535694 0.296751 -0.178641 0.173150 0.388556 0.101065 -0.074859 -0.194628 -0.247594 0.107738 -0.090901 -0.194212 0.173197 -0.130980 0.078776 -0.318887 0.329588 0.047286 -0.176668 -0.183539 0.040673 -0.301506 -0.416355 0.344938 0.009141 -0.448804 -0.176594 0.445871 -0.136490 0.283171 0.166837 0.471574 0.474473 -0.212581 -0.252806
A57 -0.008832 -0.127561 0.158803 0.051254 0.007034 0.155198 -0.138146 0.346256 0.142656 -0.470955 0.243197 0.005341 -0.194498 0.334725 0.350155 -0.524912 0.169819 -0.190402 0.774553 -0.022977 0.291532 0.303324 0.050289 -0.317675 -0.522224 -0.290310 -0.164416 0.204426 -0.546565 0.044179 -0.161421 0.559255 -0.193155 -0.133626 -0.153463 0.440796 -0.065052 0.253830 -0.357950 -0.348860 -0.026539 0.258283 0.031386 -0.208990 -0.491334 -0.321069 -0.311706 0.081942 0.461891 0.104092 0.231342 0.264776 -0.161706 0.076969 0.331895 0.129704 0.374517 -0.007357 -0.343964 -0.170779 -0.447998 -0.336163 0.220431 0.194525 0.118087 -0.079674 -0.541291 -0.143613 -0.072904 0.272156 -0.133005 0.028338 0.287450 -0.146067 0.363981 0.015765 0.048545 0.252579 0.221422 0.052589 -0.007774 -0.019956 0.030036 -0.043197 0.051536 0.571843 0.534318 0.366810 -0.551190 -0.432327 -0.020185 0.138337 -0.239824 0.356923 0.009651 0.185968 0.079780 0.575793 -0.205214 -0.028480 -0.023305 -0.156009 0.269903 0.026747 0.065483 -0.252306 -0.046987 0.002737 -0.359327 0.141709 0.189086 0.039099 -0.054343 0.260569 0.306974 -0.431763 -0.122053 -0.261395 0.059640 -0.044030 -0.067650 0.144661 0.231227 0.168385 0.210934 0.504569 -0.530976 0.186426
A58 0.068088 0.155569 -0.259490 -0.024241 0.002927 -0.052609 -0.197673 0.157269 0.008064 -0.333900 -0.361854 0.025206 -0.121105 -0.155539 0.119106 -0.335338 -0.289103 0.177768 0.167124 -0.289293 0.294912 0.031936 -0.158141 -0.389287 -0.243143 -0.095414 -0.135348 0.208694 -0.109259 0.037793 -0.357230 0.500502 0.282605 0.379272 -0.292063 0.500395 0.446175 0.063593 -0.242053 -0.108351 0.091628 0.093218 -0.036853 -0.079638 -0.006614 0.125335 -0.225539 -0.224756 0.003581 0.078510 0.262771 0.474551 -0.040551 0.374496 0.575301 -0.105126 0.257424 -0.414228 0.187103 0.039767 -0.087769 -0.245771 0.615533 0.290798 0.424037 0.168325 -0.630684 0.427671 0.393153 0.518376 -0.323210 0.269938 0.911007 0.115877 0.207974 0.156738 0.305835 0.424589 0.016815 -0.080901 -0.093056 -0.338323 0.018465 -0.009207 -0.676710 0.165357 -0.368046 0.351956 -0.469924 0.019150 -0.247019 0.210170 0.461687 -0.188443 0.252141 -0.131646 0.228792 -0.146806 -0.223490 0.095922 0.071128 -0.497748 -0.125052 -0.306244 -0.408931 0.170489 -0.109852 0.361902 -0.542216 -0.015022 0.077029 -0.417484 0.331616 0.113172 0.022785 0.391644 0.164125 -0.227255 -0.221640 -0.276398 -0.180316 -0.018621 0.240786 0.503967 0.192016 0.163281 -0.085599 0.188751
A59 0.472513 -0.248062 0.024392 -0.008750 0.044364 0.332033 -0.110396 -0.098585 0.004854 0.133602 0.018332 0.032723 -0.449951 0.679474 0.191876 0.123684 0.140577 0.071138 0.609206 0.057662 0.208029 0.451447 0.048996 -0.251915 -0.198427 -0.507998 0.098421 -0.363173 0.034262 -0.140143 -0.666739 0.866372 0.160336 0.134447 -0.186331 0.337228 0.156043 -0.005653 -0.079186 -0.244907 -0.232167 -0.202673 -0.343131 -0.467773 -0.289646 -0.168431 -0.494106 0.074968 0.600667 -0.207516 -0.219870 -0.094800 -0.394542 -0.010729 0.127323 0.201045 -0.237652 -0.067367 0.001250 -0.265914 0.017434 -0.637946 0.639106 -0.056083 -0.204463 -0.113527 -0.028394 0.160995 0.071540 0.282667 0.088652 -0.231938 0.324700 -0.314939 0.054554 0.012265 0.302924 -0.023822 -0.042566 -0.202451 -0.153748 -0.139080 0.389760 -0.092551 -0.340185 0.540400 0.021180 -0.126394 0.021598 0.049978 0.124078 0.139134 0.045675 0.281151 0.151688 0.618589 0.080242 0.036761 0.012031 0.101891 0.262318 -0.223450 0.241566 0.072447 0.096128 0.133390 -0.144743 0.494350 -0.396527 0.052541 -0.157887 -0.055253 -0.283229 0.190894 -0.027711 -0.264507 0.053617 -0.384070 0.246439 0.135043 0.432613 -0.057060 0.655371 -0.126113 0.404610 0.345752 -0.538564 -0.127619
A60 0.091764 0.034451 -0.506246 0.787493 0.231697 -0.178332 0.055536 0.081271 -0.327301 -0.073305 0.213404 -0.080014 -0.471175 0.312914 0.281276 -0.006044 -0.284430 0.263578 0.819176 0.157673 0.138973 -0.093097 -0.562543 -0.360863 -0.566009 0.307091 -0.479891 -0.201437 -0.343347 -0.167836 -0.809048 -0.427967 0.430848 0.116591 0.087371 -0.100727 0.334340 0.043420 -0.439915 -0.100561 -0.077365 0.520749 -0.144759 0.528787 -0.145377 -0.288688 0.312764 0.214725 0.440098 -0.172835 -0.140675 -0.071985 0.050644 -0.156598 0.237945 -0.316797 -0.257894 0.025636 0.139870 0.226469 0.164924 -0.533770 0.181836 0.144194 0.150182 0.262702 -0.443011 -0.063665 -0.368925 -0.170369 -0.054991 0.306986 -0.380028 0.385249 0.111790 -0.057287 -0.168278 -0.340448 -0.220343 -0.017751 -0.297080 -0.201430 0.452511 -0.045668 0.409126 0.180676 -0.226769 0.227985 0.024414 0.171777 -0.197111 -0.260809 0.529197 0.146081 0.025453 -0.162031 0.108303 -0.005108 0.389285 0.040734 0.614755 -0.053145 0.043856 0.216902 -0.128255 -0.177613 -0.027944 0.274202 -0.278144 -0.437940 0.180179 -0.614024 0.086603 -0.404418 -0.110413 -0.418815 0.509704 -0.274176 -0.332538 -0.059336 -0.042352 -0.231139 -0.036474 0.053605 0.085028 0.681163 -0.157975 -0.252142
A61 0.251659 -0.540616 0.110646 -0.002883 0.055021 -0.206336 0.056276 -0.043010 -0.068724 0.509357 -0.175532 -0.198194 -0.341147 0.208188 0.209591 -0.146603 -0.230468 0.261658 -0.134746 -0.339172 -0.308272 -0.229319 0.243214 -0.758133 0.130511 -0.248453 0.052772 -0.286074 -0.125263 -0.360543 -0.238688 0.030978 0.281144 0.247302 -0.098652 -0.283249 0.444178 0.279210 0.157117 0.079259 -0.045238 -0.181376 -0.124987 -0.307544 -0.118141 -0.383489 -0.083998 0.350446 0.464650 0.054963 0.034023 0.065472 -0.384718 0.091722 -0.146120 0.740132 0.072674 -0.228329 0.400685 -0.135095 0.227084 -0.549002 0.379712 0.382955 0.151174 0.094237 -0.263103 -0.446738 0.394539 0.021573 -0.211465 0.027055 0.410574 -0.185681 0.049278 -0.188211 -0.043382 0.245402 0.260222 -0.279548 -0.528173 -0.189357 0.221253 -0.164844 0.111804 -0.081915 0.003212 0.061936 -0.210809 0.133939 0.133396 0.315332 0.300173 -0.252612 -0.628127 0.130621 0.062110 0.493593 0.026122 0.962855 0.585287 -0.198577 0.022078 -0.132052 -0.208419 -0.183615 -0.067710 0.169175 -0.358139 0.010161 -0.207475 -0.370028 0.048480 -0.479692 -0.203030 0.099450 -0.101129 -0.283176 0.245048 -0.129654 0.005947 -0.307280 0.287917 0.057945 0.127109 0.463701 -0.409084 -0.219539
A62 0.305324 -0.171948 0.638267 0.240998 0.153636 0.099779 0.249035 0.172718 0.299870 0.167692 -0.586405 -0.107859 0.144210 0.390436 0.223150 0.246551 -0.040852 -0.191368 0.589463 0.130549 -0.043902 0.249615 0.560727 -0.532507 -0.429262 0.125851 -0.225703 0.696777 0.107772 -0.062419 -0.170796 0.401161 0.641874 0.383646 -0.113278 -0.169453 0.438498 -0.018805 -0.119849 -0.104029 -0.287279 0.673691 -0.281170 -0.288732 0.043141 -0.470935 0.239978 0.093898 0.460138 -0.250240 -0.211549 -0.317946 -0.709898 -0.001891 0.195752 0.028814 0.341001 -0.568068 0.059162 -0.008967 -0.019816 -0.117292 -0.018938 0.188290 0.705817 0.016771 -0.597203 -0.352078 0.303169 0.417695 -0.549787 0.081495 0.350640 -0.419509 -0.017954 -0.118302 -0.061103 -0.103153 -0.114788 -0.434223 -0.515167 0.039870 0.413182 0.151751 0.023015 0.130731 0.267280 0.375019 0.042714 -0.092685 -0.160871 0.320449 -0.108253 0.274308 -0.245815 0.186185 -0.184882 -0.028825 -0.003574 0.933441 -0.149373 0.387199 -0.302550 0.081625 0.171844 -0.250968 -0.093567 0.124443 -0.146701 0.225531 -0.377613 -0.441670 -0.113490 -0.211310 0.036048 -0.099501 -0.367123 -0.365422 0.024460 0.243183 -0.204809 0.037749 0.475282 -0.304072 -0.215693 0.227736 -0.100215 -0.143464
A63 0.251496 -0.674054 0.138711 -0.136182 0.138406 -0.270830 -0.002011 0.252651 -0.180518 -0.223473 0.105984 -0.201906 0.082076 0.425538 0.183299 0.201700 -0.386653 -0.189933 0.172895 0.179091 0.216326 0.017565 0.111603 -0.301291 -0.503279 -0.137417 -0.421526 0.236842 0.092313 -0.742908 0.014355 0.263612 0.005419 0.170285 -0.009280 0.161672 0.023410 0.003003 0.169872 0.042132 -0.218779 0.347926 -0.231985 0.113715 0.106349 -0.313205 -0.006745 0.325198 0.419479 0.005244 0.388871 0.263448 0.063154 -0.047109 -0.296114 -0.322740 -0.173591 -0.273499 -0.056667 0.155872 -0.150730 -0.415403 0.193333 -0.085342 0.256664 0.093069 -0.307170 0.104026 0.097011 0.090832 -0.386478 -0.026664 0.160455 0.030321 0.251328 0.347696 -0.562068 0.070022 0.343194 -0.442526 0.321917 0.164641 0.167029 -0.111776 0.177076 0.091195 0.446440 0.268962 -0.114933 -0.024659 -0.146677 0.430067 0.494529 -0.225053 0.149432 -0.122416 -0.210300 0.409582 -0.216632 0.780012 0.339371 -0.523717 0.188244 -0.392116 -0.242183 -0.131374 0.036377 0.130302 -0.581632 0.166330 -0.192742 -0.673531 -0.370708 -0.050208 -0.269549 -0.337488 0.349818 0.293378 0.338942 -0.316216 -0.192772 -0.131682 -0.005248 0.055767 -0.283984 0.231315 -0.023325 0.424583
A64 0.102533 -0.223862 -0.031470 -0.253651 -0.084538 0.308500 0.402902 0.180157 0.542365 -0.202435 -0.537801 -0.095595 -0.525633 0.111410 0.192015 0.032979 -0.389212 -0.420326 0.272429 0.123540 0.268453 -0.239140 0.211651 -0.046226 -0.250607 -0.401295 -0.116114 -0.059856 -0.244861 -0.076440 -0.201894 0.242814 -0.219678 0.539469 0.119779 -0.057969 0.532876 0.133291 -0.028902 -0.238923 0.069500 0.682715 -0.134988 -0.130614 -0.246678 -0.355609 0.171480 0.117980 0.376538 -0.014720 -0.046175 0.335643 -0.167186 -0.022818 0.202044 -0.139654 0.321769 -0.140116 -0.408019 0.380775 0.203014 -0.454432 0.466546 0.418003 0.291927 0.127155 -0.199522 -0.542135 0.153159 0.063583 -0.519684 0.053739 0.176546 -0.125477 0.130683 -0.046848 -0.329078 0.372672 0.234264 -0.090464 -0.256633 0.561394 -0.040469 0.265386 0.223738 0.053622 0.368928 0.647858 0.339200 0.399056 -0.249014 0.303055 -0.001535 0.086154 -0.075603 -0.061086 0.451510 0.095126 0.321183 0.616185 0.373256 -0.397157 0.185287 -0.035660 0.120718 -0.452290 0.368585 0.073919 -0.586798 0.401244 -0.085739 0.127163 -0.370413 -0.443635 -0.230247 -0.025057 -0.194699 0.318205 -0.049673 0.281841 -0.140286 0.370024 0.151092 0.146846 -0.009286 0.022437 -0.119964 0.292943
A65 -0.083565 0.412096 -0.474208 0.208177 0.372908 0.055068 -0.088073 -0.057659 -0.450877 0.052275 0.061008 -0.709590 -0.844445 0.126336 0.394260 -0.170883 0.202510 0.573427 0.932235 0.091698 -0.080995 -0.395005 -0.536016 -0.254373 -0.555956 0.192569 -0.119426 -0.214967 -0.537398 -0.339562 -0.255511 0.112122 -0.035388 0.084787 0.369278 -0.228540 -0.062627 -0.062966 -0.530172 0.004517 -0.054071 0.881249 -0.225617 0.630598 -0.318393 -0.502653 0.752020 0.150990 0.202526 -0.272466 0.360505 -0.033212 -0.047886 0.514967 0.729317 -0.157338 -0.325852 -0.370714 -0.070482 0.211976 -0.038754 -0.109770 -0.033693 0.089928 0.081542 -0.240489 0.082806 -0.272176 0.209533 -0.016584 -0.269778 -0.112614 -0.039080 0.590587 -0.200261 0.047953 0.089850 -0.072853 -0.076493 -0.009000 -0.385900 -0.148234 0.031466 -0.497853 0.187913 0.441908 0.089686 0.275667 0.003197 -0.210085 -0.065336 -0.265213 0.688943 -0.000297 -0.453577 -0.538593 -0.315087 -0.009449 0.346605 0.255421 0.780461 0.252695 -0.123739 0.321585 0.115512 -0.534079 -0.018014 0.513957 -0.482732 0.042999 -0.379611 -0.486142 -0.086410 0.078523 -0.117093 -0.426664 -0.154773 -0.475896 -0.571687 0.504080 0.371855 -0.092947 -0.152670 0.268962 0.105554 0.705396 -0.387279 -0.924047
A66 -0.413033 0.178347 -0.566167 0.429940 -0.357945 -0.286902 -0.067060 -0.095104 -0.204316 -0.250628 0.431918 -0.328585 -0.121068 0.402177 0.374972 -0.095211 -0.107275 0.048651 0.647217 0.222269 -0.037830 0.311227 -0.226931 -0.167698 -0.156241 -0.423903 -0.515123 0.260440 0.155565 -0.238740 -0.286266 0.452908 -0.425670 -0.115960 0.368399 0.234048 -0.081034 0.026771 -0.176265 -0.300997 -0.066636 -0.024841 -0.170964 -0.182454 -0.213354 -0.074854 -0.303850 -0.081137 0.471979 -0.452397 0.020968 0.130567 -0.191758 0.437683 0.214121 0.046560 0.396696 -0.416950 -0.007225 0.056017 -0.194781 -0.178966 0.325731 0.297013 0.533463 0.054127 0.003883 0.033418 0.498054 0.007051 -0.156202 -0.437900 0.334247 0.679916 0.461233 0.407007 0.407448 0.435901 0.114339 -0.277763 0.357185 -0.407708 0.288723 -0.095847 0.205721 0.163954 0.114468 0.540363 -0.831548 -0.051938 -0.074306 0.087701 0.140389 0.026100 0.133709 -0.233940 0.421691 0.390870 -0.059098 0.164730 -0.048688 0.127931 0.313434 -0.159182 -0.051436 0.021505 0.099945 0.443078 -0.339925 0.142787 0.283595 -0.423712 -0.039754 0.121403 0.141720 -0.397326 0.175798 -0.142123 -0.468399 -0.138105 0.436229 -0.055009 0.623434 0.013200 0.497930 0.490088 -0.237284 -0.243143
A67 0.511922 -0.075032 -0.208219 0.124066 0.030303 0.270657 -0.284566 0.072047 -0.290208 0.063703 0.618878 0.026871 -0.039022 0.242430 0.171021 -0.396433 0.048586 0.211997 0.259039 -0.196946 -0.134168 -0.001298 -0.376132 -0.606187 -0.408420 -0.148213 -0.384290 0.095700 -0.117483 0.291748 -0.454462 0.695303 0.044259 0.257702 0.075864 0.118325 0.332039 0.308659 -0.098997 -0.323144 0.031635 -0.147540 -0.205882 -0.074363 0.046316 -0.616731 -0.025778 -0.170620 0.311352 -0.018097 0.317371 0.020289 -0.379269 -0.202755 0.058028 0.137019 -0.097343 0.067996 -0.255606 0.122977 -0.100596 -0.205187 0.449209 -0.092278 0.587989 0.067984 -0.112263 -0.414222 0.087454 -0.332995 0.024332 -0.279838 0.410969 0.256917 -0.022992 0.247801 0.051424 0.575847 -0.231319 -0.445944 -0.213722 0.115986 0.314461 -0.029752 -0.862975 0.413882 0.313274 0.289694 -0.423431 0.032860 -0.057182 0.342441 -0.215292 0.260052 0.033051 0.486598 -0.100986 -0.025163 0.173588 0.212090 0.374054 0.264629 -0.073367 -0.041576 0.240955 -0.163451 0.376970 0.516638 -0.308501 -0.196761 0.161149 0.125280 -0.156048 -0.112883 0.165302 -0.218980 0.068877 -0.319598 -0.117556 0.185246 0.291750 0.142794 0.209127 0.018027 0.063553 0.209123 -0.667992 -0.242557
A68 0.122992 -0.508766 -0.007700 0.102412 0.167547 0.020912 0.238729 -0.310149 -0.108259 -0.098740 -0.181338 -0.190453 -0.575395 0.362329 0.185484 -0.098317 0.225610 -0.189815 0.690799 0.291905 0.351957 0.038550 -0.072173 -0.160762 -0.364580 -0.219111 -0.300862 -0.340573 0.090737 -0.093259 -0.372475 0.211710 -0.240719 0.303578 0.187692 0.596582 0.007895 0.289473 -0.134565 0.366406 -0.129754 0.048452 -0.523279 0.097480 0.382159 0.075047 -0.144764 0.254729 0.391501 -0.132435 0.496538 0.052834 0.045077 0.279286 -0.355624 -0.153408 0.317194 -0.024698 0.103894 0.059979 -0.124640 -0.276033 0.042656 0.194031 0.077160 -0.197455 -0.641948 -0.041874 0.400225 0.392075 -0.635216 -0.144430 0.461076 0.101446 0.061584 0.332814 -0.636624 0.377411 -0.308136 -0.180184 -0.058975 0.200242 0.120277 -0.232049 0.099078 0.042432 0.397488 0.100407 -0.165906 -0.160926 -0.313391 0.320329 0.280112 -0.088110 -0.203014 0.192291 -0.140329 -0.071357 -0.080751 0.898075 0.264861 -0.053014 0.370336 -0.266233 -0.066545 -0.326297 -0.287434 0.155427 -0.844998 0.234363 0.094007 -0.317288 -0.269217 0.004127 -0.130142 0.041638 0.252984 0.103042 0.084230 -0.317666 -0.070224 -0.070783 -0.134236 -0.017124 -0.050822 0.060019 -0.218167 0.099814
A69 -0.451604 -0.411956 -0.036793 0.184576 -0.308963 0.310289 0.028825 0.081734 0.024106 -0.267864 0.084070 0.016457 0.042271 0.255553 0.060221 0.247734 0.048575 -0.261020 0.659247 -0.189202 0.118202 0.282773 0.311036 -0.437363 -0.163887 -0.297432 -0.093147 -0.042759 0.022328 -0.263343 -0.312119 0.058019 0.359043 0.571019 0.435648 0.680136 0.306802 0.264449 0.367221 -0.213798 0.196397 0.307358 0.327031 -0.125958 -0.204905 0.039969 0.158715 0.275846 0.151667 0.220123 0.020388 0.168585 0.030411 -0.493474 -0.077796 -0.140318 0.106646 -0.170991 0.004210 0.243758 0.079581 -0.160694 0.328292 0.094281 -0.059095 0.064780 -0.102347 -0.265602 0.122390 0.251539 -0.119821 -0.259364 0.204407 -0.476609 -0.180373 0.388343 -0.810470 0.017018 -0.337608 -0.062395 -0.034799 -0.285185 -0.052273 -0.027947 -0.039225 0.143181 0.534271 -0.087706 0.292708 0.027632 -0.323386 0.643700 -0.225063 -0.245444 -0.135443 0.145862 0.063214 -0.174237 0.321780 0.716934 0.396675 -0.327140 0.272606 -0.189169 -0.194617 -0.352680 0.103602 0.337236 -0.355902 0.667590 -0.293421 -0.201132 -0.143753 -0.471989 -0.224984 -0.338773 -0.168825 0.251221 -0.074288 0.261343 0.328050 -0.202322 0.027451 0.171053 -0.057996 0.136541 0.138292 -0.212036
A70 0.033632 -0.450591 -0.128096 -0.087969 0.009792 0.002523 0.493546 -0.053205 0.134783 0.092228 -0.251501 -0.100747 -0.442281 0.594329 -0.066090 -0.215255 -0.069534 -0.355455 0.328513 0.157260 0.222609 -0.251571 0.521583 -0.043607 -0.265745 -0.249324 -0.133553 -0.070870 -0.041550 0.066919 -0.217628 0.063983 -0.114931 0.569240 0.516283 0.051909 -0.006575 0.068823 0.092398 0.093958 -0.050906 0.124887 -0.225841 0.017762 -0.127522 0.092936 0.018411 0.008089 0.048944 -0.220731 -0.147173 0.064580 0.278013 0.154492 0.083640 -0.323138 0.043250 -0.586868 -0.445087 -0.094577 -0.114936 -0.522390 0.485938 0.039433 0.229885 0.066687 -0.031427 -0.146021 0.372169 0.532402 -0.535576 -0.062036 0.060067 -0.043041 0.162252 0.523395 -0.454118 0.030265 0.085277 0.003238 0.010863 0.310244 0.106916 -0.203944 0.062799 0.092892 0.309590 0.208688 -0.173077 0.152957 0.153029 0.263316 -0.067579 -0.024051 -0.221252 0.125671 -0.068305 0.159620 0.213797 1.328551 -0.023399 -0.199546 0.150617 -0.303303 -0.205982 -0.284979 0.046598 0.056528 -0.683717 0.297906 -0.235034 -0.471035 -0.432857 -0.159249 -0.125708 -0.200796 -0.104230 0.149218 -0.019327 0.547951 0.254404 0.149520 0.244712 -0.494792 -0.025904 0.221529 -0.216843 0.286298
A71 0.002079 -0.320188 -0.260088 0.138933 0.179325 0.169504 0.182082 -0.253111 -0.197174 -0.217698 0.235738 -0.317654 -0.126963 0.528928 0.153791 -0.173689 0.053643 0.018895 1.032985 0.338198 0.317967 -0.019024 -0.088500 0.115660 -0.573608 -0.199003 -0.734705 0.213980 0.065184 -0.175467 -0.555597 0.281031 -0.154166 -0.289801 -0.059797 0.404551 0.167113 -0.010877 -0.204122 -0.319409 0.144958 0.272328 -0.326714 0.244393 -0.318289 0.516895 -0.149743 -0.159677 0.616563 0.056051 0.370448 -0.121707 -0.028397 -0.366663 0.377637 0.330794 -0.061568 -0.366488 -0.307183 -0.136541 -0.359110 -0.026179 0.521238 0.160927 0.542771 0.213815 -0.178436 -0.271788 0.434957 0.592266 -0.069986 -0.112816 0.034616 0.241424 0.242389 0.359490 0.123502 0.300203 0.338667 -0.772948 0.397878 -0.084941 0.317498 -0.359400 0.049203 0.212546 0.600821 0.142360 -0.888327 -0.428318 0.081718 0.149275 0.002958 -0.033645 0.148877 0.006704 -0.296168 -0.031451 -0.109538 -0.070602 -0.269629 -0.078367 0.154791 -0.036180 -0.236559 0.188079 0.003368 0.269109 -0.353674 0.239569 0.351787 -0.224952 -0.002139 0.308766 0.043141 -0.518642 0.356852 -0.256521 0.131543 -0.399129 0.128372 -0.052472 0.152542 -0.086143 -0.137753 0.272065 -0.125182 0.156493
A72 0.411471 -0.459819 -0.132781 0.029092 -0.313712 0.228839 -0.319589 0.418214 0.182509 0.269872 0.263271 -0.384430 -0.028461 0.343433 0.382952 0.099759 -0.138226 0.261426 0.225756 -0.529004 0.388071 0.185155 -0.202075 -0.293319 -0.208611 -0.231192 0.056030 -0.113354 0.042212 0.243883 -0.091825 0.849906 0.051662 0.196501 0.185287 -0.140584 0.147907 -0.018283 -0.019944 -0.026890 -0.144938 -0.198772 -0.080620 -0.323385 -0.578174 -0.600453 0.475427 0.078161 0.234314 -0.584055 0.070985 0.014646 -0.492038 -0.156577 -0.129846 0.289138 0.070203 -0.523930 -0.141209 0.145558 0.008384 -0.569968 0.683465 0.066583 0.344260 -0.202313 0.258874 0.283804 0.322244 -0.127911 0.102544 -0.201995 0.429762 0.103145 0.282526 0.250823 -0.168767 0.234815 -0.097639 -0.150804 -0.106613 -0.361310 0.260246 0.100845 -0.314281 0.520220 0.269091 0.518552 -0.096537 0.050328 0.422405 0.205465 -0.008596 0.241763 -0.078875 0.583080 0.242212 0.472930 0.203293 0.179275 0.198361 -0.003118 0.186461 -0.080978 0.155383 -0.290795 0.287275 0.438468 -0.292032 0.016775 -0.121075 0.074748 0.072707 -0.183560 0.136387 -0.346532 -0.273910 -0.219989 0.095192 0.263251 0.169440 0.011588 0.001877 0.059366 0.178634 0.209828 -0.356036 0.025414
A73 0.379011 -0.300724 0.566131 -0.101415 0.095159 -0.608752 0.327091 -0.244374 -0.622938 0.644137 -0.082358 -0.121378 -0.348393 0.123931 0.217484 0.328899 -0.231049 -0.281895 0.863118 0.369601 0.136757 -0.549208 0.016167 0.059764 0.094323 0.608759 0.392526 0.427152 -0.581956 -0.187822 -0.617331 -0.056588 0.006930 0.134961 0.722167 -0.193534 -0.017938 -0.036759 -0.132931 0.127557 0.059392 0.696832 -0.342149 0.412743 -0.591187 -0.226070 0.263235 -0.112773 0.383930 -0.198127 -0.982679 -0.535820 -0.097014 -0.219193 0.311314 0.099141 0.613866 -0.269778 -0.109997 -0.041437 0.495208 -0.664449 -0.113144 -0.173934 0.534881 0.338322 -0.548389 -0.532815 0.154050 -0.369473 0.388432 0.597331 0.795523 -0.202294 0.205719 -0.532521 -0.452230 0.153564 -0.505261 0.343723 0.148100 0.546761 0.690489 -0.059604 -0.106599 -0.058164 0.030421 0.557903 -0.239644 0.351523 0.275786 0.214993 0.361763 0.149574 0.030682 -0.008759 0.014011 0.135363 0.158273 0.903665 -0.292411 0.227606 0.242519 0.237586 0.769316 -0.275883 -0.544806 0.175837 -0.764558 -0.047921 -0.459487 -0.107626 -0.604873 -0.254151 -0.056314 -0.020926 -0.016932 -0.384762 -0.431480 -0.141795 0.557121 -0.210974 0.271847 0.569076 0.229802 0.545414 -0.684594 -0.506440
A74 0.083220 0.171258 -0.424564 0.227591 0.342292 -0.930547 -0.403770 -0.302065 -0.110981 0.530231 0.148828 -0.508756 -0.210585 0.397381 -0.173199 0.517910 -0.757601 0.783085 0.878767 0.939462 -0.202328 0.544880 -0.521485 -0.636954 0.009013 -0.234403 0.176187 0.310692 -0.654923 0.086568 -0.743311 -0.004389 -0.450037 0.071500 -0.043958 0.007155 0.187559 0.312735 -0.278361 -0.046139 -0.009964 0.116806 0.079556 0.132161 -0.371182 0.166413 -0.073076 0.148331 0.812739 0.274857 0.020766 0.755143 -1.140656 -0.139470 -0.390448 1.168800 0.135616 -0.754059 -0.371586 0.478470 -0.301008 -0.929154 0.169920 0.441329 0.557826 -0.108297 -0.129409 0.136458 0.652255 -0.200235 -0.319711 -0.509992 0.359678 0.314818 -0.122692 0.857400 0.267546 0.029258 -0.357706 -0.021361 -0.034820 -0.143850 0.360522 0.003558 -0.361925 0.632370 0.316656 -0.195541 -0.917488 -0.118939 -0.124229 -0.419416 -0.330802 -0.956127 0.123843 -0.349555 0.200159 0.125402 0.379415 -0.139428 -0.307531 -0.111633 -0.173141 -0.150210 -0.112335 0.369522 -0.032936 -0.026447 -0.342632 -0.713858 0.530773 0.149408 0.149907 -0.394248 -0.502865 -0.471162 -0.136416 0.373896 -0.328040 0.127333 0.646375 -0.401439 0.254822 0.300791 0.477472 0.214163 -0.315479 -0.126511
A75 0.164619 -0.187594 -0.219470 0.269040 0.230903 -0.100150 0.414400 0.269668 0.313833 0.292288 -0.047138 -0.162098 -0.274400 0.176742 -0.332897 0.079757 0.221707 -0.018227 0.522855 0.064453 -0.109633 -0.058100 -0.105614 -0.482394 -0.083463 0.094227 -0.435725 0.128596 -0.266023 -0.151989 -0.816641 0.493401 0.286432 0.486834 -0.538791 0.091760 0.358534 -0.037816 -0.543728 0.005211 0.010013 0.044458 0.100564 -0.262788 0.282848 -0.160147 -0.710631 0.514605 0.169249 0.503584 0.024689 0.461108 -0.275240 -0.058302 0.080964 -0.238056 -0.019964 -0.260001 -0.073482 0.009456 -0.210907 -0.543451 0.446790 0.155233 0.823749 -0.177645 -0.277983 0.219136 0.336677 0.042216 -0.346078 0.365184 0.431502 0.404455 0.254021 -0.084693 -0.203244 0.009140 0.192878 -0.114314 0.146029 -0.073560 0.105391 -0.086674 0.135754 0.493084 0.031875 -0.098342 -0.305037 -0.022950 -0.219003 0.260710 0.086692 0.248712 -0.036699 -0.123308 0.115838 0.201847 0.156353 0.200513 -0.006038 0.033518 -0.050977 0.196774 0.070460 -0.253961 -0.205876 -0.150366 -0.445699 0.191584 -0.642373 -0.187838 0.070644 -0.473745 -0.058652 -0.159468 -0.413626 -0.162721 0.245683 -0.324243 0.089508 -0.198889 -0.142393 -0.664301 0.479772 0.253636 -0.615593 -0.212268
A76 0.471198 -0.204346 0.082670 0.493777 0.233775 0.177750 -0.093789 0.141674 0.117932 -0.248387 -0.064722 0.093718 -0.115945 0.368302 0.023854 0.191086 -0.378855 0.008886 0.121650 0.026429 -0.062560 -0.166254 0.388200 -0.372027 0.078011 -0.240509 0.048893 0.122599 0.190754 -0.174208 -0.393288 0.561416 0.188713 0.172965 -0.025684 0.410901 -0.138355 0.010519 -0.025844 -0.415924 -0.313435 0.419321 -0.184476 0.082578 -0.189152 -0.030258 -0.115604 0.123621 -0.049487 0.031269 0.323638 -0.006190 0.151179 0.007269 -0.224572 -0.114105 0.113966 -0.222939 -0.250842 0.375575 -0.476017 -0.281266 0.513510 0.296290 0.486149 0.298008 -0.100517 -0.121138 0.353796 0.108231 -0.359468 0.115692 0.409260 0.344494 0.329043 0.140600 -0.435182 -0.227304 0.111714 -0.139572 0.121285 0.601488 0.364547 -0.525603 -0.051651 -0.084948 0.171193 -0.106466 -0.234321 0.090700 0.008295 0.321589 0.363374 -0.096446 -0.519452 0.133825 -0.091682 0.378732 0.219244 0.505674 0.304721 -0.196027 0.318945 -0.340908 -0.202806 -0.193771 0.135955 0.202509 -0.135383 0.188687 -0.400422 -0.485755 -0.383940 -0.173970 0.070722 -0.022068 0.084188 -0.036256 -0.143486 -0.063076 0.183536 -0.126201 -0.255737 -0.089511 -0.459845 0.059930 -0.189430 -0.161662
A77 0.308213 -0.258960 -0.852063 0.446355 -0.046948 0.549831 -0.269149 0.475297 -0.853617 -0.089871 0.407614 -0.147105 -0.120936 0.505445 0.546931 -0.042063 -0.047998 1.110251 0.630991 0.206613 0.260983 0.325551 -0.291670 -0.157504 -0.557587 0.079031 -0.853891 -0.080675 -0.450200 -0.415051 -1.092427 0.424165 -0.021879 -0.145731 0.098221 -0.136881 0.224355 -0.058486 -0.368618 -0.128232 -0.584756 0.447110 -0.192384 0.622794 -0.219952 0.220910 -0.015223 -0.045690 0.413765 0.019763 -0.168349 -0.212505 -0.285005 0.363097 0.861746 0.209634 -0.075418 -0.478161 0.095665 0.442511 0.063424 -0.179313 -0.085249 0.086903 -0.108738 -0.421656 0.020577 -0.202631 -0.273327 0.440334 0.289978 0.121818 -0.298010 -0.139573 0.135771 -0.152308 -0.193136 0.202926 -0.404409 -0.115781 -0.237436 0.062820 -0.360761 -0.259664 -0.019556 0.236008 0.407721 0.558473 -0.121017 -0.085226 0.363782 -0.186884 0.423456 -0.001897 0.350418 -0.467806 -0.214819 -0.092641 0.146893 -0.350598 0.326402 -0.278607 0.563269 -0.179888 -0.078216 0.098729 0.032339 0.358387 0.127857 -0.153877 -0.031199 -0.240499 0.096274 0.302672 -0.279017 -0.618593 0.121043 -0.586712 -0.519376 0.007264 0.017991 -0.549155 -0.156048 0.258688 0.084353 0.523773 -0.169273 -0.389927
A78 0.041441 -0.052535 0.355020 -0.387825 0.207150 0.313412 0.023670 0.362966 0.296764 -0.363453 -0.080341 0.005705 -0.095274 -0.088090 0.064242 0.110768 -0.224379 0.022533 0.522976 -0.305045 -0.125855 0.132792 0.133062 -0.209535 -0.264144 0.019629 -0.447130 -0.027144 -0.299830 0.252530 -0.173667 0.512769 0.250840 0.442537 0.248908 0.198777 0.580022 0.158322 0.108407 -0.129230 -0.022227 -0.142639 0.379379 0.351227 -0.484482 -0.212316 0.099092 0.089967 0.054279 -0.116500 -0.340002 0.752717 -0.114684 -0.094627 0.087083 0.244501 0.172868 -0.218642 -0.278870 0.490167 -0.004061 -0.119921 0.340103 0.046776 0.304852 0.313068 0.123454 0.209886 0.185781 0.154191 -0.526854 0.150089 0.698146 -0.161494 -0.044294 0.223105 0.098066 0.413844 0.110208 -0.530708 -0.420454 -0.369856 0.311391 0.257173 -0.250512 0.203279 -0.064425 0.052368 -0.068601 -0.168092 0.463050 0.178342 0.359193 -0.271937 0.327268 0.010228 0.094372 -0.233646 0.009063 0.306488 -0.268469 -0.394478 0.019877 -0.285837 -0.465794 -0.020655 -0.114796 0.117860 -0.570190 -0.263546 -0.216495 -0.468302 -0.133509 0.084070 -0.018477 0.446366 -0.336020 -0.301840 -0.109664 -0.067815 0.050396 0.261458 -0.111325 0.215000 0.131516 -0.329331 -0.097984 -0.257759
A79 0.277963 0.005927 0.105935 0.019756 -0.657929 -0.220372 0.261104 -0.199374 -0.150733 0.208781 0.975037 0.271274 -0.780143 0.214143 0.036098 0.246989 0.243627 -0.011186 0.350660 0.212310 -0.476867 -0.203456 -0.533769 -0.273554 -0.059629 0.518358 0.373310 -0.010637 -0.341542 -0.145525 -0.491041 0.644194 0.117013 0.482058 0.581937 0.085208 0.116062 -0.034103 0.083782 0.108822 -0.273448 0.297320 -0.027124 0.760433 -0.364384 0.195211 0.129008 -0.186997 -0.126445 0.147872 -0.337148 -0.217362 0.211949 -0.497190 0.397412 -0.325176 0.784821 -0.446532 -0.056953 0.167703 0.264902 -0.298345 0.055744 -0.160526 0.649783 -0.267798 0.070704 -0.680152 0.068082 0.106273 0.204679 -0.091885 0.778673 0.254102 -0.263823 -0.888905 -0.046508 -0.283025 0.236745 0.300643 0.138957 0.580023 -0.123517 -0.202634 0.014289 0.708038 0.254678 0.212449 -0.635447 0.225293 -0.001772 0.181879 0.452599 0.004560 -0.525952 0.134891 0.280203 0.710318 -0.221395 0.537597 -0.054123 0.033425 0.729286 -0.494680 0.029492 0.156679 -0.158781 0.109447 -0.591397 0.417653 -0.265172 -0.225998 -0.549036 -0.194491 -0.641736 -0.484151 0.475419 -0.274742 0.006837 0.096998 0.959544 -0.196411 -0.428898 0.149136 0.206429 0.305672 -0.290699 -0.617358
A80 0.095673 -0.151905 0.064470 -0.064589 0.238238 0.111678 -0.162940 0.222570 0.238268 0.064056 -0.013247 -0.189017 -0.115679 -0.215926 0.526286 0.053575 -0.362317 0.259162 0.796033 0.086607 -0.347696 0.180680 0.005664 -0.002716 0.041081 -0.221753 0.070789 -0.063366 -0.107097 -0.249656 -0.498925 0.171067 0.578124 0.568080 0.014329 0.459529 0.291997 0.614809 0.336281 -0.259492 -0.330984 -0.091164 -0.069419 0.321075 -0.453484 0.090210 -0.598210 0.061875 -0.005661 0.013649 -0.071025 0.122736 -0.318636 -0.005542 -0.135024 0.156833 0.235609 0.043942 -0.435609 0.200449 -0.043110 -0.130392 0.512348 -0.205880 0.078096 0.444554 0.007149 0.071172 -0.165707 0.388426 -0.302203 0.432044 0.495709 -0.172859 -0.018948 0.433861 0.168480 0.300557 -0.067808 -0.305823 -0.083340 -0.722038 0.431080 0.182003 -0.079367 0.445901 0.084794 0.052530 0.107618 -0.115505 0.384850 0.249353 0.510335 -0.275507 0.259985 0.250431 -0.061597 -0.144481 -0.093619 0.196229 0.119891 -0.786943 0.191289 -0.366174 -0.317057 0.055834 -0.276089 0.396314 -0.522372 -0.033055 0.304506 -0.277884 -0.165096 0.147154 -0.062459 0.460054 -0.066517 -0.608228 0.208879 0.085064 -0.177123 -0.234203 0.197721 -0.147632 0.382766 0.011448 0.272982 0.057927
A81 0.330031 -0.444093 0.040360 0.436273 -0.033071 -0.019893 -0.036881 -0.028846 0.227835 0.077781 0.120220 0.151467 -0.312678 0.665730 0.523260 -0.138349 0.213577 -0.071700 0.335751 0.264103 -0.040680 -0.299415 -0.322968 -0.587143 -0.173527 -0.240154 0.058616 -0.238536 0.314028 -0.095634 -0.318631 0.628018 0.254640 0.254559 0.176154 0.377597 0.309935 0.324225 0.198374 -0.254226 -0.274355 0.133375 -0.298007 0.025006 -0.078283 -0.278446 0.115165 -0.188452 0.150992 0.251136 0.310218 -0.059152 -0.578622 -0.111154 0.269574 0.336665 -0.317411 -0.728467 0.095464 0.144559 0.098194 -0.171303 0.592541 0.240176 0.053882 -0.233464 -0.065560 0.291398 0.238378 0.011815 -0.047761 -0.029990 0.414652 -0.208082 0.492444 0.186860 0.018925 -0.152835 0.100086 -0.395921 -0.100583 -0.558363 0.576640 -0.324546 -0.332680 0.153277 0.166804 0.019270 -0.143148 0.126683 0.053970 0.039676 -0.088456 0.222041 0.223995 0.083223 0.271744 0.666425 0.112042 0.227248 -0.338389 0.090858 -0.133428 -0.056635 -0.046342 0.064990 0.509404 0.885625 0.023268 0.063798 -0.123782 0.093488 -0.081488 0.036159 0.088537 -0.231922 -0.096672 -0.714961 0.262042 -0.074832 0.150982 0.305077 0.311251 0.215557 0.268892 -0.004005 -0.660038 -0.257925
